{"learner":{"attributes":{"scikit_learn":"{\"_estimator_type\": \"regressor\"}"},"feature_names":[],"feature_types":[],"gradient_booster":{"model":{"gbtree_model_param":{"num_parallel_tree":"1","num_trees":"100"},"iteration_indptr":[0,1,2,3,4,5,6,7,8,9,10,11,12,13,14,15,16,17,18,19,20,21,22,23,24,25,26,27,28,29,30,31,32,33,34,35,36,37,38,39,40,41,42,43,44,45,46,47,48,49,50,51,52,53,54,55,56,57,58,59,60,61,62,63,64,65,66,67,68,69,70,71,72,73,74,75,76,77,78,79,80,81,82,83,84,85,86,87,88,89,90,91,92,93,94,95,96,97,98,99,100],"tree_info":[0,0,0,0,0,0,0,0,0,0,0,0,0,0,0,0,0,0,0,0,0,0,0,0,0,0,0,0,0,0,0,0,0,0,0,0,0,0,0,0,0,0,0,0,0,0,0,0,0,0,0,0,0,0,0,0,0,0,0,0,0,0,0,0,0,0,0,0,0,0,0,0,0,0,0,0,0,0,0,0,0,0,0,0,0,0,0,0,0,0,0,0,0,0,0,0,0,0,0,0],"trees":[{"base_weights":[6.6663633E-4,-2.5211247E-2,1.2417239E-1,-2.8293138E-2,2.9721595E-2,8.678149E-2,1.4117645E-1,-2.8895268E-3,-9.670393E-3,8.174648E-2,-1.2877013E-2,1.1980659E-1,6.4401045E-2,1.0480407E-2,1.5855645E-1,4.8563495E-2,-4.38212E-2,1.0858559E-2,6.123911E-2,4.725806E-3,-2.4536112E-2,7.831764E-3,1.3492902E-2,7.0420275E-3,1.500886E-4,1.7070106E-1,1.3001499E-1,8.297234E-3,1.9620957E-3,-5.3010765E-2,-2.56354E-3,3.6543768E-3,6.8680993E-3,1.3823168E-3,-3.6413793E-2,1.3755934E-2,1.8031181E-1,1.38556585E-2,7.532593E-3,-5.918236E-3,-3.183245E-3,-5.28435E-3,-2.6714785E-3,1.4321101E-2,1.9252278E-2],"categories":[],"categories_nodes":[],"categories_segments":[],"categories_sizes":[],"default_left":[0,0,0,0,0,0,0,0,0,0,0,0,0,0,0,0,0,0,0,0,0,0,0,0,0,0,0,0,0,0,0,0,0,0,0,0,0,0,0,0,0,0,0,0,0],"id":0,"left_children":[1,3,5,7,9,11,13,-1,15,17,19,21,23,-1,25,27,29,-1,31,-1,33,-1,-1,-1,-1,35,37,-1,-1,39,-1,-1,-1,-1,41,-1,43,-1,-1,-1,-1,-1,-1,-1,-1],"loss_changes":[5.276642E0,2.3193145E-1,1.6958618E-1,1.4219284E-2,1.6283438E-1,6.0283065E-2,1.0665226E-1,0E0,8.565495E-2,1.15134865E-2,2.9905481E-2,1.2019575E-2,2.1475136E-2,0E0,2.286768E-2,1.4306072E-2,3.1532794E-3,0E0,1.3495237E-3,0E0,1.645003E-2,0E0,0E0,0E0,0E0,3.2260418E-3,9.649754E-3,0E0,0E0,3.3804774E-4,0E0,0E0,0E0,0E0,2.8907955E-3,0E0,1.8761158E-3,0E0,0E0,0E0,0E0,0E0,0E0,0E0,0E0],"parents":[2147483647,0,0,1,1,2,2,3,3,4,4,5,5,6,6,8,8,9,9,10,10,11,11,12,12,14,14,15,15,16,16,18,18,20,20,25,25,26,26,29,29,34,34,36,36],"right_children":[2,4,6,8,10,12,14,-1,16,18,20,22,24,-1,26,28,30,-1,32,-1,34,-1,-1,-1,-1,36,38,-1,-1,40,-1,-1,-1,-1,42,-1,44,-1,-1,-1,-1,-1,-1,-1,-1],"split_conditions":[1.4458575E0,1.1077694E0,1.757754E0,3.7344307E-1,-3.598717E-1,2.3218933E-2,3.474085E-1,-2.8895268E-3,-1.7063044E0,-1.8609373E-1,-1.1058569E0,1.5476161E0,7.315674E-1,1.0480407E-2,2.2347543E0,-2.2554083E0,5.4214084E-1,1.0858559E-2,5.5165124E-1,4.725806E-3,-1.1835454E0,7.831764E-3,1.3492902E-2,7.0420275E-3,1.500886E-4,9.1057444E-1,6.958997E-1,8.297234E-3,1.9620957E-3,5.25165E-1,-2.56354E-3,3.6543768E-3,6.8680993E-3,1.3823168E-3,-3.6998543E-1,1.3755934E-2,1.9291968E0,1.38556585E-2,7.532593E-3,-5.918236E-3,-3.183245E-3,-5.28435E-3,-2.6714785E-3,1.4321101E-2,1.9252278E-2],"split_indices":[19,19,19,19,1,1,15,0,1,14,10,19,1,0,15,1,15,0,4,0,21,0,0,0,0,15,1,0,0,11,0,0,0,0,15,0,19,0,0,0,0,0,0,0,0],"split_type":[0,0,0,0,0,0,0,0,0,0,0,0,0,0,0,0,0,0,0,0,0,0,0,0,0,0,0,0,0,0,0,0,0,0,0,0,0,0,0,0,0,0,0,0,0],"sum_hessian":[1.649E3,1.364E3,2.85E2,1.292E3,7.2E1,9.1E1,1.94E2,1.251E3,4.1E1,3.2E1,4E1,3.5E1,5.6E1,6.5E1,1.29E2,1.5E1,2.6E1,1.2E1,2E1,6E0,3.4E1,1.1E1,2.4E1,5.1E1,5E0,8.7E1,4.2E1,6E0,9E0,1.6E1,1E1,6E0,1.4E1,8E0,2.6E1,2.3E1,6.4E1,3.5E1,7E0,1.1E1,5E0,8E0,1.8E1,1.9E1,4.5E1],"tree_param":{"num_deleted":"0","num_feature":"22","num_nodes":"45","size_leaf_vector":"1"}},{"base_weights":[8.6528726E-4,-2.2958705E-2,1.1157862E-1,-2.5653293E-2,2.9305065E-2,6.922224E-2,1.2616132E-1,-2.5871415E-2,2.5372829E-3,7.751541E-2,-9.526916E-3,1.07003696E-1,5.2164137E-2,9.222722E-3,1.4214128E-1,-6.119454E-3,-2.568577E-2,9.578352E-3,5.286173E-3,-5.2745496E-3,1.00341905E-2,7.10122E-3,1.2146502E-2,7.692764E-4,6.0697827E-3,1.5228622E-1,1.1363615E-1,-2.608638E-3,-8.690732E-3,3.649198E-2,-1.7140325E-2,1.224297E-2,1.6565648E-1,5.6669875E-3,1.19802676E-1,7.7919858E-3,-2.8343531E-3,6.110845E-3,-6.5147283E-4,-2.3591917E-3,-4.606215E-4,9.93177E-3,1.70398E-2,1.2585068E-2,7.5904042E-3],"categories":[],"categories_nodes":[],"categories_segments":[],"categories_sizes":[],"default_left":[0,0,0,0,0,0,0,0,0,0,0,0,0,0,0,0,0,0,0,0,0,0,0,0,0,0,0,0,0,0,0,0,0,0,0,0,0,0,0,0,0,0,0,0,0],"id":1,"left_children":[1,3,5,7,9,11,13,15,-1,17,19,21,23,-1,25,-1,27,-1,-1,-1,29,-1,-1,-1,-1,31,33,-1,35,37,39,-1,41,-1,43,-1,-1,-1,-1,-1,-1,-1,-1,-1,-1],"loss_changes":[4.3493814E0,1.9185728E-1,1.716268E-1,1.502502E-2,1.261694E-1,4.4043213E-2,1.0401988E-1,6.86121E-3,0E0,8.44799E-3,3.2654583E-2,3.3456385E-3,2.0405829E-2,0E0,2.4626493E-2,0E0,8.494735E-3,0E0,0E0,0E0,2.0037878E-2,0E0,0E0,0E0,0E0,2.1234512E-2,7.96473E-3,0E0,5.4974876E-2,1.521953E-2,1.0234402E-3,0E0,4.780054E-3,0E0,2.709031E-4,0E0,0E0,0E0,0E0,0E0,0E0,0E0,0E0,0E0,0E0],"parents":[2147483647,0,0,1,1,2,2,3,3,4,4,5,5,6,6,7,7,9,9,10,10,11,11,12,12,14,14,16,16,20,20,25,25,26,26,28,28,29,29,30,30,32,32,34,34],"right_children":[2,4,6,8,10,12,14,16,-1,18,20,22,24,-1,26,-1,28,-1,-1,-1,30,-1,-1,-1,-1,32,34,-1,36,38,40,-1,42,-1,44,-1,-1,-1,-1,-1,-1,-1,-1,-1,-1],"split_conditions":[1.4502375E0,1.1077694E0,1.6840032E0,2.723922E0,-3.598717E-1,-1.8044281E-1,2.0019086E-1,-2.1654177E0,2.5372829E-3,-7.50306E-1,9.1057444E-1,2.8743094E-1,-2.0020242E-1,9.222722E-3,2.2347543E0,-6.119454E-3,5.720223E-1,9.578352E-3,5.286173E-3,-5.2745496E-3,1.7510325E-1,7.10122E-3,1.2146502E-2,7.692764E-4,6.0697827E-3,1.0141721E0,-9.1378164E-1,-2.608638E-3,-2.2554083E0,-4.329615E-1,4.4972143E-1,1.224297E-2,-1.0087188E0,5.6669875E-3,1.3260534E0,7.7919858E-3,-2.8343531E-3,6.110845E-3,-6.5147283E-4,-2.3591917E-3,-4.606215E-4,9.93177E-3,1.70398E-2,1.2585068E-2,7.5904042E-3],"split_indices":[19,19,19,15,1,1,15,15,0,1,15,15,4,0,15,0,19,0,0,0,1,0,0,0,0,15,2,0,1,12,0,0,20,0,14,0,0,0,0,0,0,0,0,0,0],"split_type":[0,0,0,0,0,0,0,0,0,0,0,0,0,0,0,0,0,0,0,0,0,0,0,0,0,0,0,0,0,0,0,0,0,0,0,0,0,0,0,0,0,0,0,0,0],"sum_hessian":[1.647E3,1.356E3,2.91E2,1.29E3,6.6E1,7.6E1,2.15E2,1.285E3,5E0,2.9E1,3.7E1,2.2E1,5.4E1,7.1E1,1.44E2,5E0,1.28E3,1.5E1,1.4E1,1.1E1,2.6E1,8E0,1.4E1,9E0,4.5E1,1.03E2,4.1E1,1.25E3,3E1,1.3E1,1.3E1,3.5E1,6.8E1,5E0,3.6E1,5E0,2.5E1,8E0,5E0,8E0,5E0,6E0,6.2E1,3E1,6E0],"tree_param":{"num_deleted":"0","num_feature":"22","num_nodes":"45","size_leaf_vector":"1"}},{"base_weights":[-1.8343339E-5,-2.0912109E-2,1.010057E-1,-2.308854E-2,2.5421217E-2,6.1238367E-2,1.1328482E-1,-2.3402164E-2,3.7692275E-3,4.5421194E-2,-1.4836888E-2,1.0555541E-2,4.7794033E-2,8.317434E-2,1.2785694E-1,-1.6880129E-2,-2.3921352E-2,5.2813135E-2,-6.5006636E-4,9.478194E-4,-2.302774E-3,5.2757367E-2,6.9320144E-4,4.976123E-3,8.545794E-3,9.674244E-2,1.357461E-1,-2.352986E-3,4.3990477E-3,-2.349798E-3,-3.893736E-2,2.1000642E-3,5.9767853E-2,3.0447203E-3,5.6458223E-3,5.6214772E-2,1.1260889E-2,1.4459443E-1,1.0159786E-2,-5.125011E-3,-1.7946627E-3,4.1538547E-3,8.58214E-3,8.354092E-3,1.9519505E-3,1.1531115E-2,1.5240128E-2],"categories":[],"categories_nodes":[],"categories_segments":[],"categories_sizes":[],"default_left":[0,0,0,0,0,0,0,0,0,0,0,0,0,0,0,0,0,0,0,0,0,0,0,0,0,0,0,0,0,0,0,0,0,0,0,0,0,0,0,0,0,0,0,0,0,0,0],"id":2,"left_children":[1,3,5,7,9,11,13,15,-1,17,19,-1,21,23,25,27,29,31,-1,-1,-1,33,-1,-1,-1,35,37,-1,-1,-1,39,-1,41,-1,-1,43,-1,45,-1,-1,-1,-1,-1,-1,-1,-1,-1],"loss_changes":[3.4363394E0,1.3662195E-1,1.2930036E-1,2.545327E-2,4.9788736E-2,3.5470366E-2,8.238578E-2,3.940642E-3,0E0,1.6079262E-2,4.4006463E-3,0E0,1.058612E-2,1.2412667E-3,2.1478415E-2,4.0702853E-2,6.624818E-3,6.7097247E-3,0E0,0E0,0E0,2.2442043E-3,0E0,0E0,0E0,1.4246643E-2,1.8546581E-2,0E0,0E0,0E0,7.0922934E-3,0E0,1.0208324E-2,0E0,0E0,9.399466E-3,0E0,1.8582344E-3,0E0,0E0,0E0,0E0,0E0,0E0,0E0,0E0,0E0],"parents":[2147483647,0,0,1,1,2,2,3,3,4,4,5,5,6,6,7,7,9,9,10,10,12,12,13,13,14,14,15,15,16,16,17,17,21,21,25,25,26,26,30,30,32,32,35,35,37,37],"right_children":[2,4,6,8,10,12,14,16,-1,18,20,-1,22,24,26,28,30,32,-1,-1,-1,34,-1,-1,-1,36,38,-1,-1,-1,40,-1,42,-1,-1,44,-1,46,-1,-1,-1,-1,-1,-1,-1,-1,-1],"split_conditions":[1.4502375E0,6.488542E-1,1.6931231E0,1.3811146E0,8.319949E-2,-1.8044281E-1,3.474085E-1,-1.826788E0,3.7692275E-3,1.1802181E0,1.4991677E-1,1.0555541E-2,2.957745E-1,1.7744901E0,-4.8778987E-1,3.0370414E-1,5.720223E-1,-1.0342275E0,-6.5006636E-4,9.478194E-4,-2.302774E-3,-1.0975055E0,6.9320144E-4,4.976123E-3,8.545794E-3,-1.029025E0,2.304858E0,-2.352986E-3,4.3990477E-3,-2.349798E-3,5.1459897E-1,2.1000642E-3,-2.8455395E-1,3.0447203E-3,5.6458223E-3,-7.6028067E-1,1.1260889E-2,9.1057444E-1,1.0159786E-2,-5.125011E-3,-1.7946627E-3,4.1538547E-3,8.58214E-3,8.354092E-3,1.9519505E-3,1.1531115E-2,1.5240128E-2],"split_indices":[19,15,19,19,1,1,15,1,0,13,1,0,12,19,6,19,19,13,0,0,0,15,0,0,0,20,15,0,0,0,5,0,12,0,0,3,0,15,0,0,0,0,0,0,0,0,0],"split_type":[0,0,0,0,0,0,0,0,0,0,0,0,0,0,0,0,0,0,0,0,0,0,0,0,0,0,0,0,0,0,0,0,0,0,0,0,0,0,0,0,0,0,0,0,0,0,0],"sum_hessian":[1.626E3,1.348E3,2.78E2,1.288E3,6E1,6.7E1,2.11E2,1.282E3,6E0,4E1,2E1,1.4E1,5.3E1,7.1E1,1.4E2,9.7E1,1.185E3,3.5E1,5E0,5E0,1.5E1,4.7E1,6E0,6E0,6.5E1,3.1E1,1.09E2,8.8E1,9E0,1.155E3,3E1,7E0,2.8E1,8E0,3.9E1,1E1,2.1E1,8.4E1,2.5E1,1.8E1,1.2E1,1.8E1,1E1,5E0,5E0,2.1E1,6.3E1],"tree_param":{"num_deleted":"0","num_feature":"22","num_nodes":"47","size_leaf_vector":"1"}},{"base_weights":[3.8048573E-4,-1.8732093E-2,9.1394596E-2,-2.0771664E-2,2.2219514E-2,5.925231E-2,1.0421353E-1,-2.1201542E-2,-2.4010029E-4,3.526454E-2,-2.0750228E-3,9.682703E-3,4.9136043E-2,7.497689E-3,1.1715966E-1,-4.4507883E-3,-2.107612E-2,5.2598532E-2,-3.7523836E-2,1.3706732E-2,5.546603E-3,1.8723147E-3,5.226777E-2,4.963989E-3,1.20316364E-1,1.020512E-3,-2.1206388E-2,3.0645484E-3,6.3901357E-3,-5.341838E-3,-2.1055816E-3,5.9595536E-3,-3.0396874E-3,3.283227E-2,5.537398E-2,1.2657382E-1,9.083039E-3,-2.4047976E-3,-2.1014444E-3,1.1270888E-3,-2.5914412E-3,4.1356394E-3,1.88361E-3,5.7586823E-3,3.2921867E-3,9.937737E-3,1.3398516E-2],"categories":[],"categories_nodes":[],"categories_segments":[],"categories_sizes":[],"default_left":[0,0,0,0,0,0,0,0,0,0,0,0,0,0,0,0,0,0,0,0,0,0,0,0,0,0,1,0,0,0,0,0,0,0,0,0,0,0,0,0,0,0,0,0,0,0,0],"id":3,"left_children":[1,3,5,7,9,11,13,15,17,19,-1,-1,21,-1,23,-1,25,27,29,31,-1,-1,33,-1,35,-1,37,-1,-1,-1,-1,-1,39,41,43,45,-1,-1,-1,-1,-1,-1,-1,-1,-1,-1,-1],"loss_changes":[2.906701E0,1.1580774E-1,1.13313675E-1,1.16099715E-2,3.7727483E-2,2.7552128E-2,6.9187164E-2,2.82979E-3,5.7134304E-2,2.1450229E-2,0E0,0E0,5.593285E-3,0E0,2.4080276E-2,0E0,5.4486394E-3,1.0192879E-3,3.3250097E-3,2.0161455E-2,0E0,0E0,1.924932E-3,0E0,1.3227224E-2,0E0,1.9222498E-4,0E0,0E0,0E0,0E0,0E0,6.839087E-3,5.3336285E-4,6.87629E-4,8.453727E-3,0E0,0E0,0E0,0E0,0E0,0E0,0E0,0E0,0E0,0E0,0E0],"parents":[2147483647,0,0,1,1,2,2,3,3,4,4,5,5,6,6,7,7,8,8,9,9,12,12,14,14,16,16,17,17,18,18,19,19,22,22,24,24,26,26,32,32,33,33,34,34,35,35],"right_children":[2,4,6,8,10,12,14,16,18,20,-1,-1,22,-1,24,-1,26,28,30,32,-1,-1,34,-1,36,-1,38,-1,-1,-1,-1,-1,40,42,44,46,-1,-1,-1,-1,-1,-1,-1,-1,-1,-1,-1],"split_conditions":[1.4502375E0,6.488542E-1,1.7298806E0,9.5807105E-1,1.7510325E-1,-3.6786848E-1,2.0019086E-1,-2.1654177E0,-5.3671545E-1,1.2598766E0,-2.0750228E-3,9.682703E-3,-6.957584E-1,7.497689E-3,-1.3553102E0,-4.4507883E-3,-1.6552188E0,-1.7299961E0,-6.181175E-2,-1.8680638E-1,5.546603E-3,1.8723147E-3,-8.030701E-1,4.963989E-3,2.5837147E0,1.020512E-3,-1.6304421E0,3.0645484E-3,6.3901357E-3,-5.341838E-3,-2.1055816E-3,5.9595536E-3,-4.641386E-1,-1.2423863E0,5.4052466E-1,1.9291968E0,9.083039E-3,-2.4047976E-3,-2.1014444E-3,1.1270888E-3,-2.5914412E-3,4.1356394E-3,1.88361E-3,5.7586823E-3,3.2921867E-3,9.937737E-3,1.3398516E-2],"split_indices":[19,15,19,19,1,1,15,15,1,19,0,0,4,0,16,0,15,15,9,6,0,0,15,0,15,0,9,0,0,0,0,0,1,15,1,19,0,0,0,0,0,0,0,0,0,0,0],"split_type":[0,0,0,0,0,0,0,0,0,0,0,0,0,0,0,0,0,0,0,0,0,0,0,0,0,0,0,0,0,0,0,0,0,0,0,0,0,0,0,0,0,0,0,0,0,0,0],"sum_hessian":[1.669E3,1.38E3,2.89E2,1.315E3,6.5E1,8.4E1,2.05E2,1.288E3,2.7E1,5E1,1.5E1,1.6E1,6.8E1,6.5E1,1.4E2,5E0,1.283E3,1.1E1,1.6E1,2.5E1,2.5E1,7E0,6.1E1,7E0,1.33E2,5E0,1.278E3,5E0,6E0,7E0,9E0,6E0,1.9E1,1E1,5.1E1,1.07E2,2.6E1,7.3E1,1.205E3,1.2E1,7E0,5E0,5E0,4.5E1,6E0,2.6E1,8.1E1],"tree_param":{"num_deleted":"0","num_feature":"22","num_nodes":"47","size_leaf_vector":"1"}},{"base_weights":[9.913153E-4,-1.7393516E-2,7.841326E-2,-1.8858861E-2,2.144919E-2,4.650383E-2,9.269092E-2,-1.0957328E-2,-1.948656E-2,4.6755195E-2,-2.0968463E-2,5.303969E-2,-2.5474278E-3,7.201406E-2,1.0693959E-1,-1.9086504E-2,4.821488E-2,-1.9072663E-2,-3.2612044E-2,7.422293E-3,3.01409E-2,-2.493085E-3,-8.2281494E-4,7.783302E-2,3.978755E-2,4.2247227E-3,7.3239203E-3,1.1797671E-1,8.343828E-2,-2.441913E-2,-1.7978797E-3,5.8850045E-3,2.7771378E-3,-1.8993303E-2,-2.506207E-2,-4.525687E-2,-1.2735148E-2,-3.411873E-4,4.7160992E-3,8.335853E-3,4.0916973E-3,1.7504513E-2,4.592209E-3,8.7370165E-2,1.2876317E-1,8.865013E-3,4.322562E-3,-3.074359E-3,-1.550972E-3,-1.9378135E-3,-1.817919E-3,-1.5642456E-3,-3.1874608E-3,-2.982341E-3,-5.246028E-3,1.6994342E-3,-2.929933E-3,3.2946102E-3,-1.2513669E-5,9.7860135E-3,3.7841902E-3,6.7128823E-3,1.3314577E-2],"categories":[],"categories_nodes":[],"categories_segments":[],"categories_sizes":[],"default_left":[0,0,0,0,0,0,0,0,0,0,0,0,0,0,0,1,0,0,0,0,0,0,0,0,0,0,0,0,0,0,0,0,0,0,0,0,0,0,0,0,0,0,0,0,0,0,0,0,0,0,0,0,0,0,0,0,0,0,0,0,0,0,0],"id":4,"left_children":[1,3,5,7,9,11,13,15,17,19,21,23,-1,25,27,29,31,33,35,-1,37,-1,-1,39,41,-1,-1,43,45,47,-1,-1,-1,49,51,53,55,-1,-1,-1,-1,57,-1,59,61,-1,-1,-1,-1,-1,-1,-1,-1,-1,-1,-1,-1,-1,-1,-1,-1,-1,-1],"loss_changes":[2.3513799E0,7.638997E-2,1.4011216E-1,6.169766E-3,5.3578027E-2,4.8395023E-2,5.652547E-2,4.757932E-2,5.848199E-3,1.1909924E-2,7.5402483E-4,2.713117E-2,0E0,2.6097894E-4,2.3098469E-2,6.897375E-5,9.7469054E-4,7.390976E-5,8.220546E-3,0E0,1.2153404E-2,0E0,0E0,2.9125959E-3,7.6713264E-3,0E0,0E0,1.64814E-2,5.3896606E-3,1.9934168E-4,0E0,0E0,0E0,6.765127E-6,2.714605E-4,7.7009946E-4,7.884592E-3,0E0,0E0,0E0,0E0,4.0875697E-3,0E0,9.2855245E-3,7.269144E-3,0E0,0E0,0E0,0E0,0E0,0E0,0E0,0E0,0E0,0E0,0E0,0E0,0E0,0E0,0E0,0E0,0E0,0E0],"parents":[2147483647,0,0,1,1,2,2,3,3,4,4,5,5,6,6,7,7,8,8,9,9,10,10,11,11,13,13,14,14,15,15,16,16,17,17,18,18,20,20,23,23,24,24,27,27,28,28,29,29,33,33,34,34,35,35,36,36,41,41,43,43,44,44],"right_children":[2,4,6,8,10,12,14,16,18,20,22,24,-1,26,28,30,32,34,36,-1,38,-1,-1,40,42,-1,-1,44,46,48,-1,-1,-1,50,52,54,56,-1,-1,-1,-1,58,-1,60,62,-1,-1,-1,-1,-1,-1,-1,-1,-1,-1,-1,-1,-1,-1,-1,-1,-1,-1],"split_conditions":[1.3977355E0,5.904345E-1,1.6840032E0,-1.913583E0,-2.026393E-1,6.246648E-1,5.904345E-1,3.0370414E-1,6.6713387E-1,1.2180821E-1,-5.297892E-1,-1.8044281E-1,-2.5474278E-3,-1.2725363E0,2.2347543E0,-1.1930598E0,-1.2408715E-1,1.8966036E0,5.1459897E-1,7.422293E-3,1.1785437E0,-2.493085E-3,-8.2281494E-4,8.792435E-1,3.5901543E-1,4.2247227E-3,7.3239203E-3,1.9291968E0,1.1823645E0,1.9763447E0,-1.7978797E-3,5.8850045E-3,2.7771378E-3,3.9264217E-1,-8.5398686E-1,-6.248435E-1,7.9343885E-1,-3.411873E-4,4.7160992E-3,8.335853E-3,4.0916973E-3,1.9107154E-1,4.592209E-3,4.4923392E-1,-1.3854632E0,8.865013E-3,4.322562E-3,-3.074359E-3,-1.550972E-3,-1.9378135E-3,-1.817919E-3,-1.5642456E-3,-3.1874608E-3,-2.982341E-3,-5.246028E-3,1.6994342E-3,-2.929933E-3,3.2946102E-3,-1.2513669E-5,9.7860135E-3,3.7841902E-3,6.7128823E-3,1.3314577E-2],"split_indices":[19,15,19,1,1,1,15,19,19,6,21,1,0,21,15,17,2,1,5,0,19,0,0,0,18,0,0,19,8,10,0,0,0,11,0,10,6,0,0,0,0,1,0,1,14,0,0,0,0,0,0,0,0,0,0,0,0,0,0,0,0,0,0],"split_type":[0,0,0,0,0,0,0,0,0,0,0,0,0,0,0,0,0,0,0,0,0,0,0,0,0,0,0,0,0,0,0,0,0,0,0,0,0,0,0,0,0,0,0,0,0,0,0,0,0,0,0,0,0,0,0,0,0,0,0,0,0,0,0],"sum_hessian":[1.65E3,1.334E3,3.16E2,1.286E3,4.8E1,9.9E1,2.17E2,9.6E1,1.19E3,3E1,1.8E1,9.1E1,8E0,9.1E1,1.26E2,8.5E1,1.1E1,1.156E3,3.4E1,1E1,2E1,1.3E1,5E0,3E1,6.1E1,5E0,8.6E1,8.3E1,4.3E1,1.1E1,7.4E1,6E0,5E0,1.145E3,1.1E1,2E1,1.4E1,7E0,1.3E1,2.5E1,5E0,1.4E1,4.7E1,2.4E1,5.9E1,3.7E1,6E0,5E0,6E0,7.62E2,3.83E2,6E0,5E0,8E0,1.2E1,5E0,9E0,7E0,7E0,1.9E1,5E0,5E0,5.4E1],"tree_param":{"num_deleted":"0","num_feature":"22","num_nodes":"63","size_leaf_vector":"1"}},{"base_weights":[1.3960728E-3,-1.6333865E-2,7.085161E-2,-1.6939731E-2,1.8884359E-2,4.1013222E-2,8.572135E-2,-1.007994E-2,-1.7510608E-2,5.3024102E-2,-1.1455758E-2,4.742442E-2,-2.3913052E-2,6.4767405E-2,9.9366106E-2,-1.7812049E-2,4.034647E-2,-3.5970118E-2,-1.7279692E-2,2.9973795E-3,6.7237057E-3,-2.3751433E-3,6.8477687E-4,6.776832E-2,3.535835E-2,-4.393943E-3,9.883257E-6,3.334738E-3,6.618985E-3,1.07464574E-1,7.6675913E-3,-2.4237722E-2,-1.6203745E-3,6.2919967E-3,2.0814529E-3,-1.498345E-3,-4.596455E-3,-1.7426133E-2,-2.6244703E-3,7.404355E-3,4.2793304E-3,-9.063498E-4,3.9803427E-2,8.4440626E-2,1.1558385E-1,-2.7793688E-3,-1.3678836E-3,-1.7174156E-3,-3.0551013E-3,2.6703142E-3,-2.429212E-3,2.681604E-3,4.3737823E-3,1.2171982E-2,6.7046345E-3,7.622812E-3,1.2253193E-2],"categories":[],"categories_nodes":[],"categories_segments":[],"categories_sizes":[],"default_left":[0,0,0,0,0,0,0,0,0,0,0,0,0,0,0,0,0,0,0,0,0,0,0,0,0,0,0,0,0,0,0,0,0,0,0,0,0,0,0,0,0,0,0,0,0,0,0,0,0,0,0,0,0,0,0,0,0],"id":5,"left_children":[1,3,5,7,9,11,13,15,17,19,21,23,25,27,29,31,33,35,37,-1,-1,-1,-1,39,41,-1,-1,-1,-1,43,-1,45,-1,-1,-1,-1,-1,47,49,-1,-1,-1,51,53,55,-1,-1,-1,-1,-1,-1,-1,-1,-1,-1,-1,-1],"loss_changes":[2.0588973E0,2.8741509E-2,1.4733875E-1,4.953563E-3,2.4430918E-2,4.9003422E-2,5.8180332E-2,4.0878613E-2,4.527658E-3,1.5883949E-3,3.088349E-3,2.3378253E-2,5.2939244E-3,1.9045472E-3,1.6566992E-2,5.373582E-4,4.8630107E-3,2.2477899E-3,2.5188625E-3,0E0,0E0,0E0,0E0,2.7869344E-3,1.3787933E-2,0E0,0E0,0E0,0E0,8.373022E-3,0E0,2.2056699E-4,0E0,0E0,0E0,0E0,0E0,3.3876896E-3,8.90966E-3,0E0,0E0,0E0,1.9951612E-3,1.0644034E-2,9.527385E-3,0E0,0E0,0E0,0E0,0E0,0E0,0E0,0E0,0E0,0E0,0E0,0E0],"parents":[2147483647,0,0,1,1,2,2,3,3,4,4,5,5,6,6,7,7,8,8,9,9,10,10,11,11,12,12,13,13,14,14,15,15,16,16,17,17,18,18,23,23,24,24,29,29,31,31,37,37,38,38,42,42,43,43,44,44],"right_children":[2,4,6,8,10,12,14,16,18,20,22,24,26,28,30,32,34,36,38,-1,-1,-1,-1,40,42,-1,-1,-1,-1,44,-1,46,-1,-1,-1,-1,-1,48,50,-1,-1,-1,52,54,56,-1,-1,-1,-1,-1,-1,-1,-1,-1,-1,-1,-1],"split_conditions":[1.3116174E0,1.8990358E0,1.6840032E0,-1.826788E0,-7.122296E-1,6.5514016E-1,5.904345E-1,3.0370414E-1,-1.2423863E0,1.1179732E0,3.6781982E-1,-1.703507E-1,3.6550274E-1,-1.3553102E0,2.304858E0,-1.1988016E0,-6.5664726E-1,-3.165215E-1,1.2073191E0,2.9973795E-3,6.7237057E-3,-2.3751433E-3,6.8477687E-4,8.2932395E-1,1.4041857E0,-4.393943E-3,9.883257E-6,3.334738E-3,6.618985E-3,1.9291968E0,7.6675913E-3,1.9763447E0,-1.6203745E-3,6.2919967E-3,2.0814529E-3,-1.498345E-3,-4.596455E-3,5.720223E-1,-2.5596436E-2,7.404355E-3,4.2793304E-3,-9.063498E-4,5.013708E-1,-4.0609348E-1,9.1057444E-1,-2.7793688E-3,-1.3678836E-3,-1.7174156E-3,-3.0551013E-3,2.6703142E-3,-2.429212E-3,2.681604E-3,4.3737823E-3,1.2171982E-2,6.7046345E-3,7.622812E-3,1.2253193E-2],"split_indices":[19,15,19,1,1,1,15,19,15,19,20,1,12,16,15,0,6,1,19,0,0,0,0,4,19,0,0,0,0,19,0,10,0,0,0,0,0,19,1,0,0,0,2,1,15,0,0,0,0,0,0,0,0,0,0,0,0],"split_type":[0,0,0,0,0,0,0,0,0,0,0,0,0,0,0,0,0,0,0,0,0,0,0,0,0,0,0,0,0,0,0,0,0,0,0,0,0,0,0,0,0,0,0,0,0,0,0,0,0,0,0,0,0,0,0,0,0],"sum_hessian":[1.67E3,1.331E3,3.39E2,1.309E3,2.2E1,1.14E2,2.25E2,1.02E2,1.207E3,1E1,1.2E1,1.04E2,1E1,9.1E1,1.34E2,8.9E1,1.3E1,1.3E1,1.194E3,5E0,5E0,7E0,5E0,3.7E1,6.7E1,5E0,5E0,5E0,8.6E1,9.6E1,3.8E1,1.5E1,7.4E1,5E0,8E0,5E0,8E0,1.182E3,1.2E1,2.8E1,9E0,6E0,6.1E1,2.8E1,6.8E1,1E1,5E0,1.162E3,2E1,5E0,7E0,1.6E1,4.5E1,7E0,2.1E1,1.2E1,5.6E1],"tree_param":{"num_deleted":"0","num_feature":"22","num_nodes":"57","size_leaf_vector":"1"}},{"base_weights":[1.2204873E-3,-1.3659881E-2,6.793174E-2,-1.5278516E-2,1.2657057E-2,4.386882E-2,7.700246E-2,-1.5076784E-2,-3.7107132E-3,4.3545544E-2,-2.3582457E-2,6.8964764E-2,3.226276E-2,5.4710288E-2,8.7848105E-2,-1.5277538E-2,2.3212722E-3,5.6617424E-2,2.7155126E-2,-3.7487987E-2,-1.4488295E-2,3.7949893E-3,7.839394E-3,3.6775403E-2,-1.4480223E-3,3.5330139E-3,5.652409E-3,9.477987E-2,6.728273E-2,-2.6025756E-3,-1.5205357E-2,6.9433227E-3,3.6324437E-3,7.057407E-4,4.16403E-3,-4.73595E-3,-1.6432721E-3,-2.0689785E-3,3.5281535E-4,1.7854417E-3,3.9616115E-3,4.3526157E-3,9.796421E-2,7.3125097E-3,2.1988468E-3,-1.5131967E-3,-2.2821797E-3,7.4817166E-3,1.0648488E-2],"categories":[],"categories_nodes":[],"categories_segments":[],"categories_sizes":[],"default_left":[0,0,0,0,0,0,0,0,0,0,0,0,0,0,0,0,0,0,0,0,0,0,0,0,0,0,0,0,0,0,0,0,0,0,0,0,0,0,0,0,0,0,0,0,0,0,0,0,0],"id":6,"left_children":[1,3,5,7,9,11,13,15,-1,17,19,21,23,25,27,29,-1,31,33,35,37,-1,-1,39,-1,-1,-1,41,43,-1,45,-1,-1,-1,-1,-1,-1,-1,-1,-1,-1,-1,47,-1,-1,-1,-1,-1,-1],"loss_changes":[1.6438267E0,5.7870418E-2,6.253898E-2,5.0594807E-3,8.945823E-2,2.2532523E-2,4.79002E-2,1.0086089E-2,0E0,7.675454E-3,4.1358527E-3,4.6285093E-3,1.3188571E-2,6.042272E-4,1.4293313E-2,5.8177114E-4,0E0,3.4595057E-3,5.8196243E-3,2.1316148E-3,2.754489E-3,0E0,0E0,2.2488832E-3,0E0,0E0,0E0,1.3036191E-2,8.977115E-3,0E0,3.556013E-4,0E0,0E0,0E0,0E0,0E0,0E0,0E0,0E0,0E0,0E0,0E0,1.1558652E-2,0E0,0E0,0E0,0E0,0E0,0E0],"parents":[2147483647,0,0,1,1,2,2,3,3,4,4,5,5,6,6,7,7,9,9,10,10,11,11,12,12,13,13,14,14,15,15,17,17,18,18,19,19,20,20,23,23,27,27,28,28,30,30,42,42],"right_children":[2,4,6,8,10,12,14,16,-1,18,20,22,24,26,28,30,-1,32,34,36,38,-1,-1,40,-1,-1,-1,42,44,-1,46,-1,-1,-1,-1,-1,-1,-1,-1,-1,-1,-1,48,-1,-1,-1,-1,-1,-1],"split_conditions":[1.418519E0,8.439158E-1,1.6900843E0,6.6713387E-1,-1.703507E-1,-1.8044281E-1,2.8743094E-1,-2.0718919E-1,-3.7107132E-3,-7.122296E-1,-1.1138088E-1,2.8743094E-1,6.5514016E-1,-6.7940927E-1,2.2347543E0,-2.578196E-1,2.3212722E-3,1.2180821E-1,4.321551E-1,5.835632E-1,1.3470811E0,3.7949893E-3,7.839394E-3,1.0438255E-1,-1.4480223E-3,3.5330139E-3,5.652409E-3,-1.3854632E0,1.1823645E0,-2.6025756E-3,1.8966036E0,6.9433227E-3,3.6324437E-3,7.057407E-4,4.16403E-3,-4.73595E-3,-1.6432721E-3,-2.0689785E-3,3.5281535E-4,1.7854417E-3,3.9616115E-3,4.3526157E-3,9.1057444E-1,7.3125097E-3,2.1988468E-3,-1.5131967E-3,-2.2821797E-3,7.4817166E-3,1.0648488E-2],"split_indices":[19,19,19,19,1,1,15,15,0,1,15,15,1,20,15,15,0,6,6,0,19,0,0,15,0,0,0,14,8,0,1,0,0,0,0,0,0,0,0,0,0,0,15,0,0,0,0,0,0],"split_type":[0,0,0,0,0,0,0,0,0,0,0,0,0,0,0,0,0,0,0,0,0,0,0,0,0,0,0,0,0,0,0,0,0,0,0,0,0,0,0,0,0,0,0,0,0,0,0,0,0],"sum_hessian":[1.654E3,1.353E3,3.01E2,1.275E3,7.8E1,8.4E1,2.17E2,1.265E3,1E1,4.2E1,3.6E1,2.5E1,5.9E1,7.3E1,1.44E2,1.259E3,6E0,2.2E1,2E1,1.3E1,2.3E1,7E0,1.8E1,5.4E1,5E0,8E0,6.5E1,1.05E2,3.9E1,6E0,1.253E3,1.2E1,1E1,9E0,1.1E1,8E0,5E0,1.7E1,6E0,8E0,4.6E1,7E0,9.8E1,3.4E1,5E0,1.244E3,9E0,2.9E1,6.9E1],"tree_param":{"num_deleted":"0","num_feature":"22","num_nodes":"49","size_leaf_vector":"1"}},{"base_weights":[4.4056878E-4,-1.2551761E-2,6.344043E-2,-1.3764732E-2,1.1842697E-2,4.071542E-2,7.180678E-2,-1.3965363E-2,2.5776986E-3,2.8349997E-2,-5.523695E-3,6.373845E-2,3.0711118E-2,5.6971844E-2,8.38813E-2,-2.9686338E-3,-1.3858206E-2,-4.894079E-4,4.051363E-2,-1.95034E-3,2.4208749E-2,4.059778E-3,7.132514E-3,8.789135E-4,3.4110849E-3,2.5553207E-3,5.841734E-2,3.7558228E-2,8.855453E-2,9.172656E-4,-1.3971732E-2,2.4873558E-2,5.815794E-3,4.035821E-3,4.024497E-4,5.9740865E-3,3.400063E-3,6.404183E-4,6.764491E-3,9.514996E-2,6.34296E-3,-7.9807825E-4,-1.4150975E-3,2.0691667E-4,3.6068838E-3,6.9440203E-3,1.0401022E-2],"categories":[],"categories_nodes":[],"categories_segments":[],"categories_sizes":[],"default_left":[0,0,0,0,0,0,0,0,0,0,0,0,0,0,0,0,0,0,0,0,0,0,0,0,0,0,0,0,0,0,0,0,0,0,0,0,0,0,0,0,0,0,0,0,0,0,0],"id":7,"left_children":[1,3,5,7,9,11,13,15,-1,17,19,21,23,25,27,-1,29,-1,31,-1,33,-1,-1,-1,-1,-1,35,37,39,-1,41,43,-1,-1,-1,-1,-1,-1,-1,45,-1,-1,-1,-1,-1,-1,-1],"loss_changes":[1.3644421E0,4.1056067E-2,5.126214E-2,1.0808125E-2,1.9076966E-2,1.6238526E-2,3.2299995E-2,1.7971098E-3,0E0,1.3946813E-2,1.4188629E-2,1.1422485E-3,3.9483383E-3,2.8671026E-3,2.0919561E-2,0E0,3.537625E-3,0E0,5.4523647E-3,0E0,3.4231925E-3,0E0,0E0,0E0,0E0,0E0,9.095073E-4,1.0814652E-2,1.0701358E-2,0E0,1.2809038E-3,3.7548905E-3,0E0,0E0,0E0,0E0,0E0,0E0,0E0,1.0545492E-2,0E0,0E0,0E0,0E0,0E0,0E0,0E0],"parents":[2147483647,0,0,1,1,2,2,3,3,4,4,5,5,6,6,7,7,9,9,10,10,11,11,12,12,13,13,14,14,16,16,18,18,20,20,26,26,27,27,28,28,30,30,31,31,39,39],"right_children":[2,4,6,8,10,12,14,16,-1,18,20,22,24,26,28,-1,30,-1,32,-1,34,-1,-1,-1,-1,-1,36,38,40,-1,42,44,-1,-1,-1,-1,-1,-1,-1,46,-1,-1,-1,-1,-1,-1,-1],"split_conditions":[1.4502375E0,5.904345E-1,1.6931231E0,1.3811146E0,-1.703507E-1,-1.8044281E-1,9.1057444E-1,-2.5283988E0,2.5776986E-3,1.1077694E0,1.418519E0,2.8743094E-1,-3.5463092E-1,-1.3553102E0,-1.0087188E0,-2.9686338E-3,-1.9029185E0,-4.894079E-4,-2.4072264E-1,-1.95034E-3,-9.353163E-1,4.059778E-3,7.132514E-3,8.789135E-4,3.4110849E-3,2.5553207E-3,2.2596872E0,2.0670426E0,2.435718E0,9.172656E-4,-2.3932023E0,8.8112825E-1,5.815794E-3,4.035821E-3,4.024497E-4,5.9740865E-3,3.400063E-3,6.404183E-4,6.764491E-3,1.9291968E0,6.34296E-3,-7.9807825E-4,-1.4150975E-3,2.0691667E-4,3.6068838E-3,6.9440203E-3,1.0401022E-2],"split_indices":[19,15,19,19,1,1,15,15,0,19,19,15,4,16,20,0,15,0,10,0,3,0,0,0,0,0,20,19,15,0,1,2,0,0,0,0,0,0,0,19,0,0,0,0,0,0,0],"split_type":[0,0,0,0,0,0,0,0,0,0,0,0,0,0,0,0,0,0,0,0,0,0,0,0,0,0,0,0,0,0,0,0,0,0,0,0,0,0,0,0,0,0,0,0,0,0,0],"sum_hessian":[1.665E3,1.381E3,2.84E2,1.316E3,6.5E1,7.8E1,2.06E2,1.31E3,6E0,3.3E1,3.2E1,2.2E1,5.6E1,9.5E1,1.11E2,7E0,1.303E3,9E0,2.4E1,2.2E1,1E1,7E0,1.5E1,8E0,4.8E1,5E0,9E1,1.1E1,1E2,6E0,1.297E3,1.4E1,1E1,5E0,5E0,8.4E1,6E0,6E0,5E0,7.7E1,2.3E1,3.9E1,1.258E3,5E0,9E0,2.2E1,5.5E1],"tree_param":{"num_deleted":"0","num_feature":"22","num_nodes":"47","size_leaf_vector":"1"}},{"base_weights":[1.3250766E-4,-1.21299755E-2,5.1804192E-2,-1.256416E-2,-3.4199983E-3,3.1349406E-2,6.1043315E-2,-1.24976095E-2,-2.155016E-3,1.7152926E-2,-2.5171855E-2,5.014814E-2,1.4058871E-2,4.1888893E-2,6.926489E-2,-1.3029322E-2,-1.1961352E-2,3.8693964E-2,3.6444524E-3,-3.0564355E-2,-7.994987E-4,5.422921E-2,3.1490976E-3,-2.2037437E-3,2.1767853E-2,4.3397754E-2,1.9064349E-3,4.5849327E-2,7.4222505E-2,-1.6465878E-2,-1.2421569E-2,-1.1885229E-3,-1.8074986E-3,5.99385E-3,1.7923819E-3,-2.1685024E-3,1.6910544E-2,-3.900403E-3,-1.8874347E-3,6.3621113E-3,4.1488834E-2,2.6704427E-2,-1.4770613E-3,5.150736E-2,3.778998E-2,2.3479898E-2,6.2557E-3,7.815218E-2,5.475623E-3,-2.8510524E-3,-1.2212361E-3,-2.0226387E-3,-1.2249899E-3,3.4300664E-3,4.7854177E-4,2.9876223E-3,5.107216E-3,1.4119111E-3,3.1593882E-3,5.6461026E-3,3.2118838E-3,4.081363E-3,1.7273192E-3,-4.2701885E-4,3.937108E-3,6.2213633E-3,8.378605E-3],"categories":[],"categories_nodes":[],"categories_segments":[],"categories_sizes":[],"default_left":[0,0,0,0,0,0,0,0,0,0,0,0,0,0,0,0,0,0,0,0,0,0,0,0,0,0,0,0,0,0,0,0,0,0,0,0,0,0,0,0,0,0,0,0,0,0,0,0,0,0,0,0,0,0,0,0,0,0,0,0,0,0,0,0,0,0,0],"id":8,"left_children":[1,3,5,7,9,11,13,15,-1,17,19,21,23,25,27,29,31,33,35,37,-1,39,-1,-1,41,43,-1,45,47,49,51,-1,-1,-1,-1,-1,53,-1,-1,-1,55,57,-1,59,61,63,-1,65,-1,-1,-1,-1,-1,-1,-1,-1,-1,-1,-1,-1,-1,-1,-1,-1,-1,-1,-1],"loss_changes":[1.050542E0,5.0245523E-3,5.8183312E-2,4.9375E-4,2.9519228E-2,3.212402E-2,3.1429052E-2,2.0599365E-4,0E0,9.752525E-3,2.719678E-3,1.9470602E-3,1.5506061E-2,1.5145168E-3,1.4125824E-2,1.1029169E-3,8.4899366E-5,4.6619494E-3,7.759215E-3,1.6316622E-3,0E0,1.907371E-3,0E0,0E0,8.511309E-3,9.185821E-4,0E0,9.369656E-3,5.1297545E-3,4.31394E-3,4.7038496E-4,0E0,0E0,0E0,0E0,0E0,2.9987171E-3,0E0,0E0,0E0,5.886182E-4,2.0153355E-3,0E0,3.9555132E-4,1.8384717E-3,6.3418658E-3,0E0,3.7668943E-3,0E0,0E0,0E0,0E0,0E0,0E0,0E0,0E0,0E0,0E0,0E0,0E0,0E0,0E0,0E0,0E0,0E0,0E0,0E0],"parents":[2147483647,0,0,1,1,2,2,3,3,4,4,5,5,6,6,7,7,9,9,10,10,11,11,12,12,13,13,14,14,15,15,16,16,17,17,18,18,19,19,21,21,24,24,25,25,27,27,28,28,29,29,30,30,36,36,40,40,41,41,43,43,44,44,45,45,47,47],"right_children":[2,4,6,8,10,12,14,16,-1,18,20,22,24,26,28,30,32,34,36,38,-1,40,-1,-1,42,44,-1,46,48,50,52,-1,-1,-1,-1,-1,54,-1,-1,-1,56,58,-1,60,62,64,-1,66,-1,-1,-1,-1,-1,-1,-1,-1,-1,-1,-1,-1,-1,-1,-1,-1,-1,-1,-1],"split_conditions":[1.3116174E0,4.565681E-1,1.6840032E0,1.8966036E0,-3.598717E-1,6.612058E-2,1.0438255E-1,-1.9071387E-1,-2.155016E-3,-1.2315377E-1,6.901541E-1,-2.026393E-1,1.418519E0,1.357489E0,-1.0315559E0,-1.8830547E-1,1.6183593E0,-2.9215643E-1,8.439158E-1,2.8743094E-1,-7.994987E-4,5.914978E-1,3.1490976E-3,-2.2037437E-3,6.246648E-1,4.459327E-1,1.9064349E-3,2.0748584E0,2.5837147E0,5.785522E-1,-2.3908472E0,-1.1885229E-3,-1.8074986E-3,5.99385E-3,1.7923819E-3,-2.1685024E-3,-1.913583E0,-3.900403E-3,-1.8874347E-3,6.3621113E-3,1.5012556E0,5.9414047E-1,-1.4770613E-3,2.189285E0,4.5537132E-1,-9.1378164E-1,6.2557E-3,9.1057444E-1,5.475623E-3,-2.8510524E-3,-1.2212361E-3,-2.0226387E-3,-1.2249899E-3,3.4300664E-3,4.7854177E-4,2.9876223E-3,5.107216E-3,1.4119111E-3,3.1593882E-3,5.6461026E-3,3.2118838E-3,4.081363E-3,1.7273192E-3,-4.2701885E-4,3.937108E-3,6.2213633E-3,8.378605E-3],"split_indices":[19,19,19,1,1,1,15,11,0,16,11,1,19,16,5,12,18,6,19,15,0,17,0,0,1,0,0,19,15,14,9,0,0,0,0,0,1,0,0,0,19,4,0,19,1,2,0,15,0,0,0,0,0,0,0,0,0,0,0,0,0,0,0,0,0,0,0],"split_type":[0,0,0,0,0,0,0,0,0,0,0,0,0,0,0,0,0,0,0,0,0,0,0,0,0,0,0,0,0,0,0,0,0,0,0,0,0,0,0,0,0,0,0,0,0,0,0,0,0,0,0,0,0,0,0,0,0,0,0,0,0,0,0,0,0,0,0],"sum_hessian":[1.656E3,1.339E3,3.17E2,1.275E3,6.4E1,1E2,2.17E2,1.268E3,7E0,3.3E1,3.1E1,4.7E1,5.3E1,6.7E1,1.5E2,6.25E2,6.43E2,1.2E1,2.1E1,2.3E1,8E0,3.7E1,1E1,9E0,4.4E1,6.2E1,5E0,2.8E1,1.22E2,9E1,5.35E2,6.38E2,5E0,5E0,7E0,7E0,1.4E1,1.2E1,1.1E1,1.9E1,1.8E1,3.9E1,5E0,2.2E1,4E1,1.3E1,1.5E1,9.9E1,2.3E1,2.2E1,6.8E1,9E0,5.26E2,5E0,9E0,1E1,8E0,1.2E1,2.7E1,1.6E1,6E0,3.4E1,6E0,5E0,8E0,2.9E1,7E1],"tree_param":{"num_deleted":"0","num_feature":"22","num_nodes":"67","size_leaf_vector":"1"}},{"base_weights":[6.183204E-4,-9.877093E-3,5.0765004E-2,-1.1081051E-2,1.1146667E-2,3.837542E-2,6.323447E-2,-1.214021E-3,-1.1356576E-2,4.0675856E-2,-8.787161E-3,4.4555366E-2,3.6576348E-3,4.9578547E-3,7.508883E-2,-1.3116523E-2,4.9970136E-3,-1.1221091E-2,-1.8402934E-2,5.3303665E-3,2.4494464E-2,-3.1323224E-2,-1.453336E-3,5.9079878E-2,3.6572624E-2,2.365627E-2,-1.3545643E-2,8.1137046E-2,4.629323E-3,-7.499385E-3,-2.213709E-3,-1.1326513E-2,-1.940881E-3,-2.7227389E-2,-8.780273E-3,1.295514E-3,2.896861E-3,-3.7756234E-3,-1.9669682E-3,-9.12645E-3,1.8642092E-3,4.2486493E-2,6.5859198E-3,2.4588384E-2,4.7957147E-3,2.9170027E-3,1.4199801E-3,-2.868447E-3,8.8970654E-4,3.752291E-3,8.536652E-2,9.846458E-5,-1.0393038E-3,-2.1540106E-3,-1.1266457E-3,1.5127516E-3,-3.006473E-3,-3.530937E-3,-1.4607507E-3,2.6817722E-4,-1.7350558E-3,5.316701E-4,-1.5841E-3,5.3277668E-3,2.9372636E-3,1.1230343E-3,2.6939125E-3,5.8904733E-3,9.167473E-3],"categories":[],"categories_nodes":[],"categories_segments":[],"categories_sizes":[],"default_left":[0,0,0,0,0,0,0,0,0,0,0,0,0,0,0,0,0,0,0,0,0,0,0,0,0,0,0,0,0,0,0,0,0,0,0,0,0,0,0,0,0,0,0,0,0,0,0,0,0,0,0,0,0,0,0,0,0,0,0,0,0,0,0,0,0,0,0,0,0],"id":9,"left_children":[1,3,5,7,9,11,13,15,17,19,21,23,25,-1,27,29,-1,31,33,-1,35,37,39,41,43,45,47,49,-1,51,-1,53,55,57,59,-1,-1,-1,-1,61,-1,63,-1,65,-1,-1,-1,-1,-1,-1,67,-1,-1,-1,-1,-1,-1,-1,-1,-1,-1,-1,-1,-1,-1,-1,-1,-1,-1],"loss_changes":[8.636502E-1,3.4471497E-2,4.144895E-2,3.4769326E-3,4.3916024E-2,3.0947357E-2,1.8940687E-2,2.2587337E-2,9.858906E-4,4.8244223E-3,7.3918775E-3,1.2100577E-2,8.233407E-3,0E0,8.957773E-3,1.3540788E-3,0E0,1.179412E-3,1.6290597E-3,0E0,3.9913692E-4,8.198712E-5,5.566944E-3,1.9265413E-3,1.0008477E-2,1.5933905E-4,4.6720393E-3,7.6802075E-3,0E0,5.012305E-4,0E0,5.019754E-4,7.6552397E-3,6.061485E-4,1.2253262E-3,0E0,0E0,0E0,0E0,2.6056827E-3,0E0,5.578026E-4,0E0,1.0163169E-3,0E0,0E0,0E0,0E0,0E0,0E0,3.447026E-3,0E0,0E0,0E0,0E0,0E0,0E0,0E0,0E0,0E0,0E0,0E0,0E0,0E0,0E0,0E0,0E0,0E0,0E0],"parents":[2147483647,0,0,1,1,2,2,3,3,4,4,5,5,6,6,7,7,8,8,9,9,10,10,11,11,12,12,14,14,15,15,17,17,18,18,20,20,21,21,22,22,23,23,24,24,25,25,26,26,27,27,29,29,31,31,32,32,33,33,34,34,39,39,41,41,43,43,50,50],"right_children":[2,4,6,8,10,12,14,16,18,20,22,24,26,-1,28,30,-1,32,34,-1,36,38,40,42,44,46,48,50,-1,52,-1,54,56,58,60,-1,-1,-1,-1,62,-1,64,-1,66,-1,-1,-1,-1,-1,-1,68,-1,-1,-1,-1,-1,-1,-1,-1,-1,-1,-1,-1,-1,-1,-1,-1,-1,-1],"split_conditions":[1.4502375E0,1.1077694E0,1.9389666E0,-2.7042887E0,-3.598717E-1,5.3251684E-1,9.1057444E-1,3.0370414E-1,-2.0718919E-1,-6.640036E-1,-3.6998543E-1,-1.8044281E-1,-7.0215315E-1,4.9578547E-3,2.435718E0,1.1252611E0,4.9970136E-3,8.167323E-1,8.167323E-1,5.3303665E-3,8.590212E-1,2.1672544E-1,1.4041857E0,2.8743094E-1,1.6840032E0,1.6253002E0,-1.3198201E-1,-1.3854632E0,4.629323E-3,-1.2719076E0,-2.213709E-3,-4.7981447E-1,-2.996015E-1,-1.3344747E-1,9.5807105E-1,1.295514E-3,2.896861E-3,-3.7756234E-3,-1.9669682E-3,7.022364E-1,1.8642092E-3,4.339593E-1,6.5859198E-3,1.0438255E-1,4.7957147E-3,2.9170027E-3,1.4199801E-3,-2.868447E-3,8.8970654E-4,3.752291E-3,-4.8051876E-1,9.846458E-5,-1.0393038E-3,-2.1540106E-3,-1.1266457E-3,1.5127516E-3,-3.006473E-3,-3.530937E-3,-1.4607507E-3,2.6817722E-4,-1.7350558E-3,5.316701E-4,-1.5841E-3,5.3277668E-3,2.9372636E-3,1.1230343E-3,2.6939125E-3,5.8904733E-3,9.167473E-3],"split_indices":[19,19,19,1,1,1,15,19,15,1,15,1,12,0,15,9,0,19,19,0,2,1,19,15,19,19,9,14,0,0,0,15,0,3,19,0,0,0,0,14,0,2,0,15,0,0,0,0,0,0,8,0,0,0,0,0,0,0,0,0,0,0,0,0,0,0,0,0,0],"split_type":[0,0,0,0,0,0,0,0,0,0,0,0,0,0,0,0,0,0,0,0,0,0,0,0,0,0,0,0,0,0,0,0,0,0,0,0,0,0,0,0,0,0,0,0,0,0,0,0,0,0,0,0,0,0,0,0,0,0,0,0,0,0,0,0,0,0,0,0,0],"sum_hessian":[1.639E3,1.356E3,2.83E2,1.283E3,7.3E1,1.44E2,1.39E2,3.5E1,1.248E3,2.9E1,4.4E1,1.22E2,2.2E1,6.7E1,7.2E1,2.9E1,6E0,1.227E3,2.1E1,1.5E1,1.4E1,1E1,3.4E1,4.1E1,8.1E1,1E1,1.2E1,5.8E1,1.4E1,1.9E1,1E1,1.213E3,1.4E1,1E1,1.1E1,5E0,9E0,5E0,5E0,2.5E1,9E0,1.4E1,2.7E1,4.1E1,4E1,5E0,5E0,7E0,5E0,6E0,5.2E1,5E0,1.4E1,5E0,1.208E3,9E0,5E0,5E0,5E0,5E0,6E0,8E0,1.7E1,6E0,8E0,7E0,3.4E1,1.2E1,4E1],"tree_param":{"num_deleted":"0","num_feature":"22","num_nodes":"69","size_leaf_vector":"1"}},{"base_weights":[-2.1774962E-4,-9.341629E-3,4.1883625E-2,-9.780183E-3,2.370348E-2,3.145324E-2,5.4367248E-2,-1.0080032E-2,2.355671E-3,4.2129938E-2,-1.1270944E-3,3.6320042E-2,4.617157E-4,3.98539E-2,6.24552E-2,-3.1012648E-3,-9.959286E-3,2.8768019E-3,-1.6250756E-2,2.4279142E-3,5.593421E-3,5.4548856E-2,3.148175E-2,-2.648974E-3,1.1532214E-2,3.225657E-2,4.674032E-2,5.060014E-2,7.516251E-2,7.2505145E-4,-1.0044886E-2,-2.9066892E-3,-1.0040917E-2,5.944106E-3,2.6703952E-3,2.4525857E-2,4.144786E-2,-4.959961E-4,2.3572731E-3,3.7924606E-2,2.3235248E-3,2.695875E-3,5.0527113E-3,5.926627E-2,1.7638244E-2,5.0644223E-3,8.2110316E-2,-5.3187984E-4,-1.018009E-3,-1.3290194E-3,-4.4288603E-4,1.2441857E-3,2.7375568E-3,4.782922E-3,2.6892314E-3,4.6131643E-3,2.1954903E-3,3.2792927E-3,6.45256E-3,3.652354E-3,-4.1867569E-4,8.881704E-3,4.2716167E-3],"categories":[],"categories_nodes":[],"categories_segments":[],"categories_sizes":[],"default_left":[0,0,0,0,0,0,0,0,0,0,0,0,0,0,0,0,0,0,0,0,0,0,0,0,0,0,0,0,0,0,0,0,0,0,0,0,0,0,0,0,0,0,0,0,0,0,0,0,0,0,0,0,0,0,0,0,0,0,0,0,0,0,0],"id":10,"left_children":[1,3,5,7,9,11,13,15,17,19,-1,21,23,25,27,-1,29,-1,31,-1,-1,33,35,-1,37,39,41,43,45,-1,47,-1,49,-1,-1,51,53,-1,-1,55,-1,-1,-1,57,59,-1,61,-1,-1,-1,-1,-1,-1,-1,-1,-1,-1,-1,-1,-1,-1,-1,-1],"loss_changes":[6.3189745E-1,1.9825123E-2,3.6441207E-2,4.881695E-3,1.2075031E-2,2.4417624E-2,1.3005525E-2,2.9845238E-3,1.6685003E-2,1.598971E-3,0E0,1.063019E-2,7.1679046E-3,1.1082441E-3,8.700371E-3,0E0,1.9835085E-3,0E0,1.2998641E-3,0E0,0E0,2.2269264E-3,6.816983E-3,0E0,3.4926836E-3,4.994087E-4,4.3566152E-4,1.2094632E-2,2.314821E-3,0E0,7.7079237E-4,0E0,2.1466636E-4,0E0,0E0,2.0354763E-3,2.8935522E-3,0E0,0E0,9.5314346E-4,0E0,0E0,0E0,2.8963834E-3,4.686802E-3,0E0,3.6038458E-3,0E0,0E0,0E0,0E0,0E0,0E0,0E0,0E0,0E0,0E0,0E0,0E0,0E0,0E0,0E0,0E0],"parents":[2147483647,0,0,1,1,2,2,3,3,4,4,5,5,6,6,7,7,8,8,9,9,11,11,12,12,13,13,14,14,16,16,18,18,21,21,22,22,24,24,25,25,26,26,27,27,28,28,30,30,32,32,35,35,36,36,39,39,43,43,44,44,46,46],"right_children":[2,4,6,8,10,12,14,16,18,20,-1,22,24,26,28,-1,30,-1,32,-1,-1,34,36,-1,38,40,42,44,46,-1,48,-1,50,-1,-1,52,54,-1,-1,56,-1,-1,-1,58,60,-1,62,-1,-1,-1,-1,-1,-1,-1,-1,-1,-1,-1,-1,-1,-1,-1,-1],"split_conditions":[1.3977355E0,2.723922E0,1.9180119E0,1.2073191E0,5.809231E-1,5.7982916E-1,3.474085E-1,-2.1654177E0,-1.703507E-1,2.0989956E-1,-1.1270944E-3,-4.0609348E-1,-2.578196E-1,3.2671052E-1,1.3197637E-1,-3.1012648E-3,-1.7299961E0,2.8768019E-3,4.6780396E-2,2.4279142E-3,5.593421E-3,9.648151E-1,1.6840032E0,-2.648974E-3,1.6433424E0,3.7307788E-2,-7.0216995E-1,7.2483087E-1,1.0141721E0,7.2505145E-4,-2.3932023E0,-2.9066892E-3,2.131822E-1,5.944106E-3,2.6703952E-3,1.0438255E-1,7.2581637E-1,-4.959961E-4,2.3572731E-3,2.0993503E-2,2.3235248E-3,2.695875E-3,5.0527113E-3,-4.913765E-1,-2.5472867E-1,5.0644223E-3,2.435718E0,-5.3187984E-4,-1.018009E-3,-1.3290194E-3,-4.4288603E-4,1.2441857E-3,2.7375568E-3,4.782922E-3,2.6892314E-3,4.6131643E-3,2.1954903E-3,3.2792927E-3,6.45256E-3,3.652354E-3,-4.1867569E-4,8.881704E-3,4.2716167E-3],"split_indices":[19,15,19,19,6,1,15,15,1,20,0,1,15,1,11,0,15,0,9,0,0,2,19,0,19,1,11,1,15,0,1,0,1,0,0,15,13,0,0,11,0,0,0,8,11,0,15,0,0,0,0,0,0,0,0,0,0,0,0,0,0,0,0],"split_type":[0,0,0,0,0,0,0,0,0,0,0,0,0,0,0,0,0,0,0,0,0,0,0,0,0,0,0,0,0,0,0,0,0,0,0,0,0,0,0,0,0,0,0,0,0,0,0,0,0,0,0,0,0,0,0,0,0,0,0,0,0,0,0],"sum_hessian":[1.643E3,1.351E3,2.92E2,1.334E3,1.7E1,1.61E2,1.31E2,1.302E3,3.2E1,1.1E1,6E0,1.39E2,2.2E1,4.9E1,8.2E1,6E0,1.296E3,1.3E1,1.9E1,6E0,5E0,2.7E1,1.12E2,6E0,1.6E1,2.6E1,2.3E1,4.5E1,3.7E1,6E0,1.29E3,5E0,1.4E1,2.2E1,5E0,6.8E1,4.4E1,7E0,9E0,1.4E1,1.2E1,5E0,1.8E1,3.5E1,1E1,1E1,2.7E1,3.7E1,1.253E3,8E0,6E0,1.4E1,5.4E1,2.9E1,1.5E1,8E0,6E0,7E0,2.8E1,5E0,5E0,2.2E1,5E0],"tree_param":{"num_deleted":"0","num_feature":"22","num_nodes":"63","size_leaf_vector":"1"}},{"base_weights":[2.5286345E-4,-8.553245E-3,3.730995E-2,-9.102479E-3,3.2605308E-3,2.3971248E-2,4.6216734E-2,-8.892004E-3,-3.0513909E-3,2.6082965E-2,-1.8930873E-2,3.7438013E-2,1.3456247E-2,3.0408423E-2,5.281268E-2,-9.01697E-3,1.8811884E-3,3.71158E-2,1.4109493E-2,-3.0849394E-3,-1.0833218E-2,4.0269498E-2,1.5415408E-3,-1.6775792E-2,1.900114E-2,3.2664973E-2,9.3014224E-4,3.1759147E-2,5.544283E-2,-8.956895E-3,-1.562454E-3,2.4278306E-3,4.5313826E-3,6.3631935E-3,2.595946E-3,-1.8817447E-3,-5.0865216E-3,4.2382974E-2,1.8059096E-3,-6.6159945E-4,-2.3087652E-3,-1.5630219E-3,2.2256088E-2,2.8907065E-3,4.4043805E-3,2.4526566E-4,4.7521535E-2,4.428498E-2,6.095199E-2,-9.50507E-4,-8.505468E-4,1.5203938E-3,-3.5380834E-4,-9.11746E-4,1.1358174E-4,4.494108E-3,2.7441347E-3,2.4499951E-3,7.317279E-4,5.6786095E-3,3.0336722E-3,4.8982236E-3,1.3801275E-3,4.5167613E-3,6.749429E-3],"categories":[],"categories_nodes":[],"categories_segments":[],"categories_sizes":[],"default_left":[0,0,0,0,0,0,0,0,0,0,0,0,0,0,0,0,0,0,0,0,0,0,0,0,0,0,0,0,0,0,0,0,0,0,0,0,0,0,0,0,0,0,0,0,0,0,0,0,0,0,0,0,0,0,0,0,0,0,0,0,0,0,0,0,0],"id":11,"left_children":[1,3,5,7,9,11,13,15,-1,17,19,21,23,25,27,29,-1,31,33,-1,35,37,-1,39,41,43,-1,45,47,49,-1,-1,-1,51,-1,-1,53,55,-1,-1,-1,-1,57,-1,-1,-1,59,61,63,-1,-1,-1,-1,-1,-1,-1,-1,-1,-1,-1,-1,-1,-1,-1,-1],"loss_changes":[5.387615E-1,8.685388E-3,3.6553264E-2,5.4745227E-3,3.0881483E-2,1.7763026E-2,1.8101215E-2,4.5456216E-3,0E0,3.4393556E-3,2.657676E-3,2.871193E-3,1.272363E-2,2.4586543E-3,5.5485666E-3,3.5980344E-4,0E0,4.7848746E-4,1.3035093E-3,0E0,8.219434E-4,1.5347227E-3,0E0,6.167784E-4,7.449435E-3,9.5037E-4,0E0,7.7364333E-3,4.4312775E-3,2.2848696E-4,0E0,0E0,0E0,1.016674E-3,0E0,0E0,3.3642008E-4,4.485324E-4,0E0,0E0,0E0,0E0,1.7649252E-3,0E0,0E0,0E0,2.8602779E-5,5.337946E-3,4.696399E-3,0E0,0E0,0E0,0E0,0E0,0E0,0E0,0E0,0E0,0E0,0E0,0E0,0E0,0E0,0E0,0E0],"parents":[2147483647,0,0,1,1,2,2,3,3,4,4,5,5,6,6,7,7,9,9,10,10,11,11,12,12,13,13,14,14,15,15,17,17,18,18,20,20,21,21,23,23,24,24,25,25,27,27,28,28,29,29,33,33,36,36,37,37,42,42,46,46,47,47,48,48],"right_children":[2,4,6,8,10,12,14,16,-1,18,20,22,24,26,28,30,-1,32,34,-1,36,38,-1,40,42,44,-1,46,48,50,-1,-1,-1,52,-1,-1,54,56,-1,-1,-1,-1,58,-1,-1,-1,60,62,64,-1,-1,-1,-1,-1,-1,-1,-1,-1,-1,-1,-1,-1,-1,-1,-1],"split_conditions":[1.3116174E0,8.439158E-1,1.734536E0,6.6713387E-1,-3.598717E-1,2.6048701E-2,1.0438255E-1,-2.0718919E-1,-3.0513909E-3,-1.2408715E-1,-2.578196E-1,9.692479E-1,1.418519E0,3.907364E-1,-1.1789374E0,1.8966036E0,1.8811884E-3,-8.030701E-1,9.8516417E-1,-3.0849394E-3,4.589441E-2,7.69145E-1,1.5415408E-3,1.9013946E-1,-9.515435E-1,-2.005698E-1,9.3014224E-4,2.0748584E0,1.9486614E0,-3.3620933E-1,-1.562454E-3,2.4278306E-3,4.5313826E-3,2.8465053E-1,2.595946E-3,-1.8817447E-3,1.2598766E0,5.259883E-1,1.8059096E-3,-6.6159945E-4,-2.3087652E-3,-1.5630219E-3,1.0194644E0,2.8907065E-3,4.4043805E-3,2.4526566E-4,-9.1979825E-1,4.866764E-1,9.1057444E-1,-9.50507E-4,-8.505468E-4,1.5203938E-3,-3.5380834E-4,-9.11746E-4,1.1358174E-4,4.494108E-3,2.7441347E-3,2.4499951E-3,7.317279E-4,5.6786095E-3,3.0336722E-3,4.8982236E-3,1.3801275E-3,4.5167613E-3,6.749429E-3],"split_indices":[19,19,19,19,1,1,15,15,0,2,15,4,19,12,5,1,0,15,18,0,20,11,0,20,9,12,0,19,19,11,0,0,0,11,0,0,19,9,0,0,0,0,8,0,0,0,4,1,15,0,0,0,0,0,0,0,0,0,0,0,0,0,0,0,0],"split_type":[0,0,0,0,0,0,0,0,0,0,0,0,0,0,0,0,0,0,0,0,0,0,0,0,0,0,0,0,0,0,0,0,0,0,0,0,0,0,0,0,0,0,0,0,0,0,0,0,0,0,0,0,0,0,0,0,0,0,0,0,0,0,0,0,0],"sum_hessian":[1.649E3,1.333E3,3.16E2,1.274E3,5.9E1,1.28E2,1.88E2,1.263E3,1.1E1,2.9E1,3E1,5.5E1,7.3E1,5.7E1,1.31E2,1.258E3,5E0,1.4E1,1.5E1,1.1E1,1.9E1,4.8E1,7E0,1.1E1,6.2E1,5.1E1,6E0,1.6E1,1.15E2,1.249E3,9E0,7E0,7E0,1E1,5E0,7E0,1.2E1,4.3E1,5E0,5E0,6E0,5E0,5.7E1,4.1E1,1E1,6E0,1E1,4.1E1,7.4E1,5.55E2,6.94E2,5E0,5E0,7E0,5E0,3.5E1,8E0,4.9E1,8E0,5E0,5E0,3.5E1,6E0,2.4E1,5E1],"tree_param":{"num_deleted":"0","num_feature":"22","num_nodes":"65","size_leaf_vector":"1"}},{"base_weights":[3.6475874E-4,-7.106297E-3,3.7745878E-2,-8.110357E-3,1.0175128E-2,2.755382E-2,4.3412466E-2,-2.6826512E-3,-8.002926E-3,3.0615037E-2,-8.020285E-3,4.4462413E-2,2.109934E-2,3.0870192E-2,4.860812E-2,6.24293E-4,-8.2150055E-3,4.04555E-2,1.8527044E-2,-2.3798514E-2,-1.4416497E-3,2.0455464E-3,5.034747E-3,2.6683317E-2,1.5817912E-2,3.5568405E-2,2.1793551E-3,5.2386194E-2,3.185376E-2,-1.1662939E-2,4.61734E-3,-8.12329E-3,-1.5823666E-2,2.2261767E-3,4.714017E-3,1.116853E-3,2.4644614E-3,-1.2130397E-3,-3.0399968E-3,8.689906E-3,-1.2152533E-2,1.975791E-2,3.6883403E-2,1.8445317E-2,4.2118878E-5,1.6562662E-3,3.827413E-2,5.740494E-2,3.4519847E-2,3.7205966E-5,3.9705582E-2,-2.2296954E-3,-8.0692704E-4,-8.218879E-4,1.3081387E-3,-2.333409E-3,-1.920756E-4,-1.0407219E-3,2.9087935E-3,-8.007507E-4,-1.7035488E-3,2.2471927E-3,8.3228754E-4,2.2232092E-3,4.3261456E-3,-2.2274193E-5,2.1564085E-3,4.2323736E-3,1.9500556E-3,4.289416E-3,6.380245E-3,4.1607004E-3,2.2361663E-3,4.5661572E-3,2.212138E-3],"categories":[],"categories_nodes":[],"categories_segments":[],"categories_sizes":[],"default_left":[0,0,0,0,0,0,0,0,0,0,0,0,0,0,0,0,0,0,0,0,0,0,0,0,0,0,0,0,0,1,0,0,0,0,0,0,0,0,0,0,0,0,0,0,0,0,0,0,0,0,0,0,0,0,0,0,0,0,0,0,0,0,0,0,0,0,0,0,0,0,0,0,0,0,0],"id":12,"left_children":[1,3,5,7,9,11,13,-1,15,17,19,21,23,25,27,29,31,33,35,37,39,-1,-1,41,43,45,-1,47,49,51,-1,53,55,-1,-1,-1,-1,-1,-1,57,59,61,63,65,-1,-1,67,69,71,-1,73,-1,-1,-1,-1,-1,-1,-1,-1,-1,-1,-1,-1,-1,-1,-1,-1,-1,-1,-1,-1,-1,-1,-1,-1],"loss_changes":[4.6107435E-1,2.395831E-2,1.4686227E-2,2.4012327E-3,2.8510895E-2,1.0084622E-2,9.903431E-3,0E0,2.3745298E-3,3.5327338E-3,4.221458E-3,2.7847402E-3,1.7897785E-3,1.5276112E-3,6.0537755E-3,1.8448034E-2,7.5351447E-4,1.2613367E-3,5.350476E-4,5.5555534E-4,3.3611418E-3,0E0,0E0,1.7436538E-3,1.6508205E-3,1.11451E-3,0E0,6.805718E-3,6.164944E-3,8.13673E-4,0E0,2.6432276E-3,1.4170147E-3,0E0,0E0,0E0,0E0,0E0,0E0,6.535423E-3,1.6718777E-4,5.2677E-4,2.5301613E-4,2.0425506E-3,0E0,0E0,1.3794042E-3,4.225731E-3,1.1376031E-3,0E0,1.0845289E-3,0E0,0E0,0E0,0E0,0E0,0E0,0E0,0E0,0E0,0E0,0E0,0E0,0E0,0E0,0E0,0E0,0E0,0E0,0E0,0E0,0E0,0E0,0E0,0E0],"parents":[2147483647,0,0,1,1,2,2,3,3,4,4,5,5,6,6,8,8,9,9,10,10,11,11,12,12,13,13,14,14,15,15,16,16,17,17,18,18,19,19,20,20,23,23,24,24,25,25,27,27,28,28,29,29,31,31,32,32,39,39,40,40,41,41,42,42,43,43,46,46,47,47,48,48,50,50],"right_children":[2,4,6,8,10,12,14,-1,16,18,20,22,24,26,28,30,32,34,36,38,40,-1,-1,42,44,46,-1,48,50,52,-1,54,56,-1,-1,-1,-1,-1,-1,58,60,62,64,66,-1,-1,68,70,72,-1,74,-1,-1,-1,-1,-1,-1,-1,-1,-1,-1,-1,-1,-1,-1,-1,-1,-1,-1,-1,-1,-1,-1,-1,-1],"split_conditions":[1.4502375E0,1.1077694E0,1.7895238E0,-2.1654177E0,-2.026393E-1,-1.8044281E-1,2.0019086E-1,-2.6826512E-3,-2.7042887E0,-6.640036E-1,-3.6998543E-1,-2.0718919E-1,2.5763664E-1,4.9006084E-1,7.6430917E-1,-1.775857E-1,9.1545105E-1,-2.691313E-1,3.734004E-1,-2.4269451E-1,1.7510325E-1,2.0455464E-3,5.034747E-3,1.6655046E0,1.7245544E0,-1.1058298E0,2.1793551E-3,2.304858E0,-1.1805828E0,-3.3687395E-1,4.61734E-3,8.167323E-1,4.9314007E-1,2.2261767E-3,4.714017E-3,1.116853E-3,2.4644614E-3,-1.2130397E-3,-3.0399968E-3,1.3094398E0,1.3977355E0,5.514277E-1,-6.356003E-1,-1.3033773E0,4.2118878E-5,1.6562662E-3,1.9065708E0,9.1057444E-1,5.809231E-1,3.7205966E-5,8.4776366E-1,-2.2296954E-3,-8.0692704E-4,-8.218879E-4,1.3081387E-3,-2.333409E-3,-1.920756E-4,-1.0407219E-3,2.9087935E-3,-8.007507E-4,-1.7035488E-3,2.2471927E-3,8.3228754E-4,2.2232092E-3,4.3261456E-3,-2.2274193E-5,2.1564085E-3,4.2323736E-3,1.9500556E-3,4.289416E-3,6.380245E-3,4.1607004E-3,2.2361663E-3,4.5661572E-3,2.212138E-3],"split_indices":[19,19,19,15,1,1,15,0,1,1,15,15,1,2,9,19,19,12,0,0,1,0,0,19,19,16,0,15,16,21,0,19,5,0,0,0,0,0,0,19,19,9,15,3,0,0,20,15,6,0,16,0,0,0,0,0,0,0,0,0,0,0,0,0,0,0,0,0,0,0,0,0,0,0,0],"split_type":[0,0,0,0,0,0,0,0,0,0,0,0,0,0,0,0,0,0,0,0,0,0,0,0,0,0,0,0,0,0,0,0,0,0,0,0,0,0,0,0,0,0,0,0,0,0,0,0,0,0,0,0,0,0,0,0,0,0,0,0,0,0,0,0,0,0,0,0,0,0,0,0,0,0,0],"sum_hessian":[1.649E3,1.375E3,2.74E2,1.3E3,7.5E1,1E2,1.74E2,6E0,1.294E3,3.5E1,4E1,2.6E1,7.4E1,5.3E1,1.21E2,3.1E1,1.263E3,1.8E1,1.7E1,1.1E1,2.9E1,6E0,2E1,3.4E1,4E1,3.3E1,2E1,9.7E1,2.4E1,2.5E1,6E0,1.25E3,1.3E1,6E0,1.2E1,9E0,8E0,5E0,6E0,1.5E1,1.4E1,2.2E1,1.2E1,3.4E1,6E0,5E0,2.8E1,7.4E1,2.3E1,5E0,1.9E1,5E0,2E1,1.245E3,5E0,8E0,5E0,8E0,7E0,9E0,5E0,1.7E1,5E0,5E0,7E0,5E0,2.9E1,2.2E1,6E0,2.5E1,4.9E1,1.3E1,1E1,1.3E1,6E0],"tree_param":{"num_deleted":"0","num_feature":"22","num_nodes":"75","size_leaf_vector":"1"}},{"base_weights":[5.73757E-4,-6.330421E-3,3.479564E-2,-7.323341E-3,9.3095675E-3,2.3741513E-2,3.9764334E-2,-7.4536502E-3,6.1606825E-3,2.383739E-2,1.066156E-3,-6.4881788E-6,2.546324E-2,3.140031E-2,4.7714148E-2,-2.4597351E-3,-7.3138922E-3,1.9967456E-3,-1.3275127E-3,6.481006E-3,3.219153E-2,-9.492403E-3,1.1209547E-2,2.2181416E-2,3.6899656E-2,5.0034523E-2,2.4134258E-2,4.959328E-2,1.12616E-3,-7.1990336E-3,-2.1181002E-3,-1.6652044E-3,2.8533887E-3,4.9847974E-3,1.8849757E-2,-4.901142E-3,-1.5725043E-2,2.130552E-2,-1.2471457E-3,3.1071171E-2,1.8281685E-2,4.368595E-2,1.7177118E-3,5.4543104E-2,3.3072326E-3,4.3543032E-4,2.589311E-2,5.3037252E-2,2.6863057E-3,1.4223426E-3,-7.2948757E-4,2.2943113E-3,1.0250321E-3,-7.6967577E-4,1.5069464E-4,-2.3723242E-3,-5.1060016E-4,2.854808E-3,1.5209675E-3,2.0519134E-3,3.6880001E-3,2.016267E-3,1.4408505E-4,5.30753E-3,2.5450722E-3,3.870202E-3,6.492988E-3,2.8671098E-3,1.8707277E-3,3.8169276E-3,5.893841E-3],"categories":[],"categories_nodes":[],"categories_segments":[],"categories_sizes":[],"default_left":[0,0,0,0,0,0,0,0,0,0,0,0,0,0,0,0,0,0,0,0,0,0,0,0,0,0,0,0,0,0,0,0,0,0,0,0,0,0,0,0,0,0,0,0,0,0,0,0,0,0,0,0,0,0,0,0,0,0,0,0,0,0,0,0,0,0,0,0,0,0,0],"id":13,"left_children":[1,3,5,7,9,11,13,15,17,19,21,-1,23,25,27,-1,29,-1,-1,31,33,35,37,39,41,43,45,47,-1,49,-1,-1,-1,-1,51,53,55,57,-1,59,61,63,-1,65,-1,-1,67,69,-1,-1,-1,-1,-1,-1,-1,-1,-1,-1,-1,-1,-1,-1,-1,-1,-1,-1,-1,-1,-1,-1,-1],"loss_changes":[3.9267135E-1,2.1545134E-2,1.4379889E-2,2.3318976E-3,9.914566E-3,3.6495924E-3,1.1201829E-2,2.9085055E-3,3.7535657E-3,4.141299E-3,5.889783E-3,0E0,2.2966936E-3,1.1790581E-2,6.0174167E-3,0E0,1.8862411E-3,0E0,0E0,6.0868016E-3,3.771741E-3,6.955527E-4,6.96003E-3,1.7547011E-3,1.5249308E-3,1.8449873E-4,2.3573488E-3,5.698934E-3,0E0,2.71333E-3,0E0,0E0,0E0,0E0,2.224329E-4,3.1614592E-4,8.1313425E-4,4.4878293E-4,0E0,4.0785782E-4,1.523139E-3,7.037986E-4,0E0,6.13302E-4,0E0,0E0,7.611774E-4,4.5939684E-3,0E0,0E0,0E0,0E0,0E0,0E0,0E0,0E0,0E0,0E0,0E0,0E0,0E0,0E0,0E0,0E0,0E0,0E0,0E0,0E0,0E0,0E0,0E0],"parents":[2147483647,0,0,1,1,2,2,3,3,4,4,5,5,6,6,7,7,8,8,9,9,10,10,12,12,13,13,14,14,16,16,19,19,20,20,21,21,22,22,23,23,24,24,25,25,26,26,27,27,29,29,34,34,35,35,36,36,37,37,39,39,40,40,41,41,43,43,46,46,47,47],"right_children":[2,4,6,8,10,12,14,16,18,20,22,-1,24,26,28,-1,30,-1,-1,32,34,36,38,40,42,44,46,48,-1,50,-1,-1,-1,-1,52,54,56,58,-1,60,62,64,-1,66,-1,-1,68,70,-1,-1,-1,-1,-1,-1,-1,-1,-1,-1,-1,-1,-1,-1,-1,-1,-1,-1,-1,-1,-1,-1,-1],"split_conditions":[1.5329059E0,-1.1138088E-1,2.8743094E-1,1.3811146E0,-3.598717E-1,1.580397E0,1.9486614E0,-2.1654177E0,-1.7299961E0,-6.0284144E-1,1.3127257E0,-6.4881788E-6,1.2973938E0,-1.8044281E-1,1.4292102E0,-2.4597351E-3,1.0941939E0,1.9967456E-3,-1.3275127E-3,1.0624375E0,-4.8307594E-2,9.6940446E-1,3.3297175E-1,-8.409317E-1,1.9065708E0,2.6615646E-1,-8.357002E-1,2.435718E0,1.12616E-3,-1.7299961E0,-2.1181002E-3,-1.6652044E-3,2.8533887E-3,4.9847974E-3,8.286339E-1,1.2598766E0,1.2582365E-2,-2.0642483E-1,-1.2471457E-3,-1.1058298E0,3.907364E-1,4.339593E-1,1.7177118E-3,1.6900843E0,3.3072326E-3,4.3543032E-4,6.299402E-1,9.1057444E-1,2.6863057E-3,1.4223426E-3,-7.2948757E-4,2.2943113E-3,1.0250321E-3,-7.6967577E-4,1.5069464E-4,-2.3723242E-3,-5.1060016E-4,2.854808E-3,1.5209675E-3,2.0519134E-3,3.6880001E-3,2.016267E-3,1.4408505E-4,5.30753E-3,2.5450722E-3,3.870202E-3,6.492988E-3,2.8671098E-3,1.8707277E-3,3.8169276E-3,5.893841E-3],"split_indices":[19,15,15,19,1,19,19,15,15,9,19,0,13,1,1,0,19,0,0,19,0,17,1,9,20,9,4,15,0,15,0,0,0,0,3,19,1,20,0,16,12,2,0,19,0,0,13,15,0,0,0,0,0,0,0,0,0,0,0,0,0,0,0,0,0,0,0,0,0,0,0],"split_type":[0,0,0,0,0,0,0,0,0,0,0,0,0,0,0,0,0,0,0,0,0,0,0,0,0,0,0,0,0,0,0,0,0,0,0,0,0,0,0,0,0,0,0,0,0,0,0,0,0,0,0,0,0,0,0,0,0,0,0,0,0,0,0,0,0,0,0,0,0,0,0],"sum_hessian":[1.66E3,1.382E3,2.78E2,1.3E3,8.2E1,8.8E1,1.9E2,1.288E3,1.2E1,2.9E1,5.3E1,6E0,8.2E1,9.5E1,9.5E1,9E0,1.279E3,7E0,5E0,1E1,1.9E1,2.6E1,2.7E1,6.6E1,1.6E1,2.5E1,7E1,9E1,5E0,1.27E3,9E0,5E0,5E0,7E0,1.2E1,1.6E1,1E1,1.9E1,8E0,1.8E1,4.8E1,1.1E1,5E0,1.8E1,7E0,6E0,6.4E1,7.7E1,1.3E1,5E0,1.265E3,7E0,5E0,1.1E1,5E0,5E0,5E0,7E0,1.2E1,8E0,1E1,4.3E1,5E0,6E0,5E0,9E0,9E0,4.4E1,2E1,2.4E1,5.3E1],"tree_param":{"num_deleted":"0","num_feature":"22","num_nodes":"71","size_leaf_vector":"1"}},{"base_weights":[4.681087E-4,-5.8629652E-3,3.1938273E-2,-6.7440807E-3,7.902114E-3,2.5334425E-2,3.7561145E-2,-4.9826875E-3,-7.240869E-3,3.0366506E-2,3.6776173E-3,3.8111918E-2,1.739014E-2,2.5380045E-2,4.2686336E-2,-6.486526E-3,2.0893991E-2,-6.8327608E-3,-2.0263033E-2,1.2913932E-3,3.9660125E-3,-5.2500577E-3,1.4117063E-2,4.303442E-2,2.4085285E-2,2.0209387E-2,-4.929385E-4,2.92911E-2,1.6985241E-3,4.65491E-2,2.8192798E-2,-1.3304748E-2,-6.148193E-4,1.2045765E-3,3.0549462E-3,-5.835357E-3,-7.2824126E-3,-2.871816E-2,-3.0479787E-3,4.227106E-3,-1.13494145E-2,1.9985044E-2,-1.0533299E-3,4.6212166E-3,1.9973316E-3,1.5039797E-3,3.5146885E-3,1.7055335E-2,2.7207261E-2,3.480171E-2,1.812504E-3,3.5656423E-3,5.0931703E-2,2.6957048E-4,3.476068E-2,-1.7688883E-3,-5.972466E-4,-5.866965E-4,-3.266603E-4,-7.172208E-4,-1.6664239E-3,-3.3918824E-3,-1.4214237E-3,9.5482403E-4,-1.5136201E-3,-2.0065843E-3,1.7093522E-3,-1.5680563E-3,-4.8052796E-4,2.2651486E-3,6.877255E-4,1.8719612E-3,8.985636E-5,3.2543372E-3,1.8083202E-3,4.1399016E-3,2.0555542E-3,3.991588E-3,6.2113423E-3,2.2481976E-3,5.2598184E-3],"categories":[],"categories_nodes":[],"categories_segments":[],"categories_sizes":[],"default_left":[0,0,0,0,0,0,0,0,0,0,0,0,0,0,0,0,0,0,0,0,0,0,0,0,0,0,0,0,0,0,0,0,0,0,0,0,0,0,0,0,0,0,0,0,0,0,0,0,0,0,0,0,0,0,0,0,0,0,0,0,0,0,0,0,0,0,0,0,0,0,0,0,0,0,0,0,0,0,0,0,0],"id":14,"left_children":[1,3,5,7,9,11,13,15,17,19,21,23,25,27,29,31,33,35,37,-1,-1,39,41,43,45,47,-1,49,-1,51,53,55,-1,-1,-1,57,59,61,63,65,67,69,-1,-1,-1,-1,-1,71,73,75,-1,-1,77,-1,79,-1,-1,-1,-1,-1,-1,-1,-1,-1,-1,-1,-1,-1,-1,-1,-1,-1,-1,-1,-1,-1,-1,-1,-1,-1,-1],"loss_changes":[3.2833546E-1,1.6693756E-2,9.2969835E-3,1.0927282E-3,7.7650854E-3,1.253327E-2,8.0938935E-3,1.1303949E-2,5.197257E-3,1.5963996E-3,6.691314E-3,2.3467764E-3,5.2594095E-3,1.0127798E-3,4.3981373E-3,5.4566003E-4,9.989492E-4,3.9477646E-4,4.279133E-3,0E0,0E0,2.3023547E-3,4.9838866E-3,1.6418695E-3,9.7226165E-4,1.1472031E-3,0E0,1.2151748E-3,0E0,1.9552857E-3,3.925381E-3,2.8010271E-4,0E0,0E0,0E0,5.841255E-6,5.7113916E-4,1.0264702E-3,1.8194488E-3,5.3440067E-3,6.048973E-4,7.8790076E-4,0E0,0E0,0E0,0E0,0E0,1.4083134E-3,4.339395E-4,9.34761E-4,0E0,0E0,4.172176E-3,0E0,2.9788967E-3,0E0,0E0,0E0,0E0,0E0,0E0,0E0,0E0,0E0,0E0,0E0,0E0,0E0,0E0,0E0,0E0,0E0,0E0,0E0,0E0,0E0,0E0,0E0,0E0,0E0,0E0],"parents":[2147483647,0,0,1,1,2,2,3,3,4,4,5,5,6,6,7,7,8,8,9,9,10,10,11,11,12,12,13,13,14,14,15,15,16,16,17,17,18,18,21,21,22,22,23,23,24,24,25,25,27,27,29,29,30,30,31,31,35,35,36,36,37,37,38,38,39,39,40,40,41,41,47,47,48,48,49,49,52,52,54,54],"right_children":[2,4,6,8,10,12,14,16,18,20,22,24,26,28,30,32,34,36,38,-1,-1,40,42,44,46,48,-1,50,-1,52,54,56,-1,-1,-1,58,60,62,64,66,68,70,-1,-1,-1,-1,-1,72,74,76,-1,-1,78,-1,80,-1,-1,-1,-1,-1,-1,-1,-1,-1,-1,-1,-1,-1,-1,-1,-1,-1,-1,-1,-1,-1,-1,-1,-1,-1,-1],"split_conditions":[1.5012556E0,-1.1138088E-1,1.9180119E0,-3.935623E-1,-1.7063044E0,2.3218933E-2,2.8743094E-1,7.0261896E-1,3.7344307E-1,7.980305E-1,1.3127257E0,7.778173E-1,7.497078E-1,6.0582954E-1,2.2347543E0,-4.150229E0,7.2414994E-1,-6.4367276E-1,8.978648E-2,1.2913932E-3,3.9660125E-3,-3.598717E-1,3.2910734E-1,1.8624756E0,1.5181394E0,5.059219E-1,-4.929385E-4,2.189285E0,1.6985241E-3,9.1057444E-1,-6.8808E-1,-1.2471116E0,-6.148193E-4,1.2045765E-3,3.0549462E-3,1.7427056E0,1.8966036E0,8.716742E-1,1.4145616E-1,1.1077694E0,5.508795E-1,4.6102062E-1,-1.0533299E-3,4.6212166E-3,1.9973316E-3,1.5039797E-3,3.5146885E-3,4.9945688E-1,1.0577826E0,1.2260665E-1,1.812504E-3,3.5656423E-3,2.169671E0,2.6957048E-4,2.640718E-1,-1.7688883E-3,-5.972466E-4,-5.866965E-4,-3.266603E-4,-7.172208E-4,-1.6664239E-3,-3.3918824E-3,-1.4214237E-3,9.5482403E-4,-1.5136201E-3,-2.0065843E-3,1.7093522E-3,-1.5680563E-3,-4.8052796E-4,2.2651486E-3,6.877255E-4,1.8719612E-3,8.985636E-5,3.2543372E-3,1.8083202E-3,4.1399016E-3,2.0555542E-3,3.991588E-3,6.2113423E-3,2.2481976E-3,5.2598184E-3],"split_indices":[19,15,19,1,1,1,15,19,19,19,19,4,1,0,15,1,5,8,21,0,0,1,1,19,15,16,0,19,0,15,21,0,0,0,0,1,1,14,1,19,11,10,0,0,0,0,0,1,21,11,0,0,19,0,11,0,0,0,0,0,0,0,0,0,0,0,0,0,0,0,0,0,0,0,0,0,0,0,0,0,0],"split_type":[0,0,0,0,0,0,0,0,0,0,0,0,0,0,0,0,0,0,0,0,0,0,0,0,0,0,0,0,0,0,0,0,0,0,0,0,0,0,0,0,0,0,0,0,0,0,0,0,0,0,0,0,0,0,0,0,0,0,0,0,0,0,0,0,0,0,0,0,0,0,0,0,0,0,0,0,0,0,0,0,0],"sum_hessian":[1.646E3,1.371E3,2.75E2,1.289E3,8.2E1,1.29E2,1.46E2,2.86E2,1.003E3,1.2E1,7E1,4.8E1,8.1E1,4.5E1,1.01E2,2.71E2,1.5E1,9.74E2,2.9E1,5E0,7E0,3.8E1,3.2E1,3.4E1,1.4E1,7.2E1,9E0,2.9E1,1.6E1,7.8E1,2.3E1,1.1E1,2.6E2,9E0,6E0,3.07E2,6.67E2,1.9E1,1E1,1.5E1,2.3E1,2.6E1,6E0,2.9E1,5E0,9E0,5E0,5.2E1,2E1,1.8E1,1.1E1,2.5E1,5.3E1,5E0,1.8E1,6E0,5E0,3.02E2,5E0,6.61E2,6E0,1.3E1,6E0,5E0,5E0,5E0,1E1,1.3E1,1E1,2.1E1,5E0,4.7E1,5E0,1.1E1,9E0,1.1E1,7E0,2.9E1,2.4E1,1.2E1,6E0],"tree_param":{"num_deleted":"0","num_feature":"22","num_nodes":"81","size_leaf_vector":"1"}},{"base_weights":[4.263811E-4,-4.9380106E-3,2.867323E-2,-5.998493E-3,7.6109334E-3,1.9175634E-2,3.235198E-2,-5.8334423E-3,-1.4509996E-2,3.2280773E-2,1.4272545E-3,2.1793934E-2,-6.1314506E-4,2.123368E-2,3.5833415E-2,-5.9933583E-3,2.8961028E-3,-2.9882176E-3,7.958613E-4,3.8517475E-2,1.655186E-3,3.7011546E-3,-2.205863E-3,2.4923878E-2,1.47563815E-2,3.6149838E-3,1.4028502E-2,8.487467E-4,3.7379593E-2,-1.4920272E-3,-5.939137E-3,-1.6232232E-3,1.3467448E-3,2.5404776E-3,4.6815495E-3,-9.942139E-3,8.869397E-3,3.3871435E-2,1.9671228E-2,5.3329306E-4,1.6955556E-3,1.6506735E-2,-2.8771348E-5,4.021292E-2,2.7696867E-2,-5.8713875E-4,-1.0559419E-3,-1.2926885E-3,6.691243E-5,-1.7815514E-3,1.1619217E-3,2.2163303E-3,4.5758565E-3,2.2575816E-3,1.1023554E-3,1.8108076E-3,7.350253E-4,3.0837283E-3,4.458513E-3,2.0369862E-3,3.5619752E-3],"categories":[],"categories_nodes":[],"categories_segments":[],"categories_sizes":[],"default_left":[0,0,0,0,0,0,0,0,0,0,0,0,0,0,0,0,0,0,0,0,0,0,0,0,0,0,0,0,0,0,0,0,0,0,0,0,0,0,0,0,0,0,0,0,0,0,0,0,0,0,0,0,0,0,0,0,0,0,0,0,0],"id":15,"left_children":[1,3,5,7,9,11,13,15,17,19,21,23,-1,25,27,29,-1,-1,31,33,-1,35,-1,37,39,-1,41,-1,43,-1,45,-1,-1,-1,-1,47,49,51,53,-1,-1,55,-1,57,59,-1,-1,-1,-1,-1,-1,-1,-1,-1,-1,-1,-1,-1,-1,-1,-1],"loss_changes":[2.5349498E-1,1.8756613E-2,8.708417E-3,1.7374195E-3,1.6734468E-2,5.235767E-3,6.6322684E-3,7.262353E-3,5.6706066E-3,1.5205909E-3,4.8346473E-3,1.1741109E-3,0E0,4.6516024E-3,5.771309E-3,5.2562356E-4,0E0,0E0,3.0236552E-3,4.4280477E-4,0E0,5.870153E-3,0E0,1.5426334E-3,4.0694885E-4,0E0,1.2110323E-3,0E0,2.6173145E-3,0E0,3.3334643E-4,0E0,0E0,0E0,0E0,7.371041E-4,4.609723E-3,1.2126565E-3,5.5490807E-4,0E0,0E0,2.921177E-4,0E0,2.8473139E-3,1.2481641E-3,0E0,0E0,0E0,0E0,0E0,0E0,0E0,0E0,0E0,0E0,0E0,0E0,0E0,0E0,0E0,0E0],"parents":[2147483647,0,0,1,1,2,2,3,3,4,4,5,5,6,6,7,7,8,8,9,9,10,10,11,11,13,13,14,14,15,15,18,18,19,19,21,21,23,23,24,24,26,26,28,28,30,30,35,35,36,36,37,37,38,38,41,41,43,43,44,44],"right_children":[2,4,6,8,10,12,14,16,18,20,22,24,-1,26,28,30,-1,-1,32,34,-1,36,-1,38,40,-1,42,-1,44,-1,46,-1,-1,-1,-1,48,50,52,54,-1,-1,56,-1,58,60,-1,-1,-1,-1,-1,-1,-1,-1,-1,-1,-1,-1,-1,-1,-1,-1],"split_conditions":[1.5329059E0,9.5807105E-1,1.0438255E-1,5.9951645E-1,-6.640036E-1,8.0456E-1,1.7298806E0,-2.0718919E-1,6.0289875E-2,-1.8609373E-1,6.401083E-1,7.016426E-1,-6.1314506E-4,2.3218933E-2,-1.3553102E0,-2.578196E-1,2.8961028E-3,-2.9882176E-3,8.439158E-1,-2.9215643E-1,1.655186E-3,1.2873453E0,-2.205863E-3,2.3218933E-2,6.002627E-1,3.6149838E-3,1.2880948E0,8.487467E-4,2.304858E0,-1.4920272E-3,2.7168024E0,-1.6232232E-3,1.3467448E-3,2.5404776E-3,4.6815495E-3,8.1473154E-1,-6.766534E-1,-3.6786848E-1,-6.356003E-1,5.3329306E-4,1.6955556E-3,1.6538067E0,-2.8771348E-5,9.1057444E-1,3.910785E-1,-5.8713875E-4,-1.0559419E-3,-1.2926885E-3,6.691243E-5,-1.7815514E-3,1.1619217E-3,2.2163303E-3,4.5758565E-3,2.2575816E-3,1.1023554E-3,1.8108076E-3,7.350253E-4,3.0837283E-3,4.458513E-3,2.0369862E-3,3.5619752E-3],"split_indices":[19,19,15,19,1,1,19,15,21,14,1,18,0,1,16,15,0,0,19,6,0,19,0,1,6,0,14,0,15,0,20,0,0,0,0,8,11,1,15,0,0,19,0,15,9,0,0,0,0,0,0,0,0,0,0,0,0,0,0,0,0],"split_type":[0,0,0,0,0,0,0,0,0,0,0,0,0,0,0,0,0,0,0,0,0,0,0,0,0,0,0,0,0,0,0,0,0,0,0,0,0,0,0,0,0,0,0,0,0,0,0,0,0,0,0,0,0,0,0,0,0,0,0,0,0],"sum_hessian":[1.671E3,1.405E3,2.66E2,1.296E3,1.09E2,7.6E1,1.9E2,1.273E3,2.3E1,2.1E1,8.8E1,6.9E1,7E0,4.7E1,1.43E2,1.268E3,5E0,1.1E1,1.2E1,1.4E1,7E0,8.1E1,7E0,4.6E1,2.3E1,1.4E1,3.3E1,8E0,1.35E2,6E0,1.262E3,5E0,7E0,7E0,7E0,2.2E1,5.9E1,1.5E1,3.1E1,5E0,1.8E1,2.8E1,5E0,1.02E2,3.3E1,1.246E3,1.6E1,1.7E1,5E0,5E0,5.4E1,9E0,6E0,2.2E1,9E0,2.3E1,5E0,3.5E1,6.7E1,1.9E1,1.4E1],"tree_param":{"num_deleted":"0","num_feature":"22","num_nodes":"61","size_leaf_vector":"1"}},{"base_weights":[3.7791714E-4,-4.6529872E-3,2.619298E-2,-5.2763694E-3,8.10165E-3,2.245921E-2,3.4154676E-2,-5.447719E-3,9.00734E-4,1.2699247E-2,-1.917206E-3,2.3984144E-2,-2.6777815E-3,2.2951078E-2,4.6818115E-2,-2.429297E-3,-5.3387857E-3,2.607898E-3,-8.457903E-3,3.4097084E-3,9.081651E-3,-7.887713E-3,6.919883E-4,2.9255558E-2,1.6621288E-2,1.8517941E-2,3.5373062E-2,5.1806916E-2,2.766879E-3,-1.2857682E-3,-5.2744667E-3,-2.061215E-3,-1.235661E-3,-1.2966422E-3,1.5189748E-2,-4.8242958E-4,-9.199312E-4,1.9239245E-2,3.3300925E-2,1.805767E-2,-3.3855214E-4,1.4118909E-2,2.5214774E-3,2.2584111E-3,4.2266506E-3,5.671076E-3,2.8293296E-3,1.5847175E-4,-5.3589226E-4,9.83191E-4,-9.1724703E-4,2.8974668E-4,1.7442208E-3,2.407434E-3,1.2899507E-3,1.9474138E-3,3.8244415E-3,1.5965048E-3,3.2803013E-3,2.1259643E-3,9.928041E-4],"categories":[],"categories_nodes":[],"categories_segments":[],"categories_sizes":[],"default_left":[0,0,0,0,0,0,0,0,0,0,0,0,0,0,0,0,0,0,0,0,0,0,0,0,0,0,0,0,0,0,0,0,0,0,0,0,0,0,0,0,0,0,0,0,0,0,0,0,0,0,0,0,0,0,0,0,0,0,0,0,0],"id":16,"left_children":[1,3,5,7,9,11,13,15,17,19,21,23,-1,25,27,-1,29,-1,31,-1,33,35,-1,37,39,41,43,45,-1,-1,47,-1,49,-1,51,-1,-1,53,55,57,-1,59,-1,-1,-1,-1,-1,-1,-1,-1,-1,-1,-1,-1,-1,-1,-1,-1,-1,-1,-1],"loss_changes":[2.1181506E-1,1.0895884E-2,7.1403384E-3,1.3829954E-3,2.9723584E-3,1.4457539E-2,1.0701187E-2,2.4712868E-3,8.703401E-3,3.0963258E-3,1.162582E-3,6.461203E-3,0E0,1.8781088E-3,2.1967888E-3,0E0,5.4201484E-4,0E0,2.3446148E-3,0E0,5.449156E-3,7.853436E-6,0E0,3.5328344E-3,2.2739172E-3,7.0453994E-4,1.5208498E-5,1.7393753E-3,0E0,0E0,7.337779E-4,0E0,1.6713244E-3,0E0,8.077854E-4,0E0,0E0,6.703567E-4,4.176609E-3,1.6979631E-3,0E0,5.071545E-4,0E0,0E0,0E0,0E0,0E0,0E0,0E0,0E0,0E0,0E0,0E0,0E0,0E0,0E0,0E0,0E0,0E0,0E0,0E0],"parents":[2147483647,0,0,1,1,2,2,3,3,4,4,5,5,6,6,7,7,8,8,9,9,10,10,11,11,13,13,14,14,16,16,18,18,20,20,21,21,23,23,24,24,25,25,26,26,27,27,30,30,32,32,34,34,37,37,38,38,39,39,41,41],"right_children":[2,4,6,8,10,12,14,16,18,20,22,24,-1,26,28,-1,30,-1,32,-1,34,36,-1,38,40,42,44,46,-1,-1,48,-1,50,-1,52,-1,-1,54,56,58,-1,60,-1,-1,-1,-1,-1,-1,-1,-1,-1,-1,-1,-1,-1,-1,-1,-1,-1,-1,-1],"split_conditions":[1.5329059E0,5.904345E-1,2.156516E0,9.5807105E-1,1.7510325E-1,1.2889365E0,9.1057444E-1,-1.9029185E0,-7.50306E-1,-6.5664726E-1,1.4458575E0,2.6026633E-1,-2.6777815E-3,6.716701E-1,1.0062999E0,-2.429297E-3,-4.150229E0,2.607898E-3,-9.8978317E-1,3.4097084E-3,1.1077694E0,1.3127257E0,6.919883E-4,1.6674136E0,2.1056726E0,3.474085E-1,5.2523786E-1,2.304858E0,2.766879E-3,-1.2857682E-3,-2.7042887E0,-2.061215E-3,-1.9029185E0,-1.2966422E-3,4.0282202E-1,-4.8242958E-4,-9.199312E-4,-1.4324735E-1,-1.4793641E-2,2.0628939E0,-3.3855214E-4,-5.739762E-1,2.5214774E-3,2.2584111E-3,4.2266506E-3,5.671076E-3,2.8293296E-3,1.5847175E-4,-5.3589226E-4,9.83191E-4,-9.1724703E-4,2.8974668E-4,1.7442208E-3,2.407434E-3,1.2899507E-3,1.9474138E-3,3.8244415E-3,1.5965048E-3,3.2803013E-3,2.1259643E-3,9.928041E-4],"split_indices":[19,15,19,19,1,1,15,15,1,6,19,1,0,1,17,0,1,0,3,0,19,19,0,19,19,15,16,15,0,0,1,0,15,0,5,0,0,1,15,19,0,3,0,0,0,0,0,0,0,0,0,0,0,0,0,0,0,0,0,0,0],"split_type":[0,0,0,0,0,0,0,0,0,0,0,0,0,0,0,0,0,0,0,0,0,0,0,0,0,0,0,0,0,0,0,0,0,0,0,0,0,0,0,0,0,0,0,0,0,0,0,0,0,0,0,0,0,0,0,0,0,0,0,0,0],"sum_hessian":[1.629E3,1.364E3,2.65E2,1.301E3,6.3E1,1.83E2,8.2E1,1.266E3,3.5E1,4.3E1,2E1,1.78E2,5E0,4.5E1,3.7E1,6E0,1.26E3,9E0,2.6E1,5E0,3.8E1,1.2E1,8E0,1.02E2,7.6E1,3.5E1,1E1,2.8E1,9E0,9E0,1.251E3,9E0,1.7E1,8E0,3E1,5E0,7E0,3.1E1,7.1E1,7.1E1,5E0,2.3E1,1.2E1,5E0,5E0,2.2E1,6E0,1.5E1,1.236E3,7E0,1E1,5E0,2.5E1,1.6E1,1.5E1,2E1,5.1E1,6.4E1,7E0,7E0,1.6E1],"tree_param":{"num_deleted":"0","num_feature":"22","num_nodes":"61","size_leaf_vector":"1"}},{"base_weights":[2.2282715E-4,-4.322166E-3,2.420073E-2,-4.807829E-3,8.145357E-3,1.7749174E-2,2.9735556E-2,-4.980782E-3,5.2069104E-3,1.2986771E-2,-1.6428821E-3,2.3550943E-2,9.899674E-3,2.3333691E-2,3.5203904E-2,-1.691098E-3,-4.9126064E-3,1.8093131E-2,-6.0973465E-3,2.824158E-3,8.257204E-3,2.6772132E-2,1.2757942E-2,-4.666155E-3,1.41724385E-2,2.040057E-2,2.9206496E-2,5.1311194E-3,3.1194089E-2,-4.8587117E-3,-1.5708171E-3,2.5031934E-3,8.1388076E-4,-1.2781986E-3,3.8317294E-4,1.2149732E-2,-6.398795E-4,3.5192862E-2,2.2846926E-2,5.975279E-4,1.4907022E-2,5.614239E-4,-1.7595654E-3,-1.6588024E-4,1.6356628E-2,2.5904873E-2,1.3816898E-2,2.1655468E-2,3.78261E-3,-1.08721106E-4,3.409576E-2,-2.412241E-4,-5.095496E-4,1.4585869E-3,7.8625235E-5,2.0468587E-3,4.050814E-3,1.0099182E-3,2.6894452E-3,9.400911E-4,1.828356E-3,2.2585024E-3,1.2852883E-3,2.8877428E-3,1.1678882E-3,1.0056498E-3,2.1512657E-3,1.1447656E-3,2.6604396E-3,3.6776129E-3,1.8088466E-3],"categories":[],"categories_nodes":[],"categories_segments":[],"categories_sizes":[],"default_left":[0,0,0,0,0,0,0,0,0,0,0,0,0,0,0,0,0,0,0,0,0,0,0,0,0,0,0,0,0,0,0,0,0,0,0,0,0,0,0,0,0,0,0,0,0,0,0,0,0,0,0,0,0,0,0,0,0,0,0,0,0,0,0,0,0,0,0,0,0,0,0],"id":17,"left_children":[1,3,5,7,9,11,13,15,17,19,-1,21,23,25,27,-1,29,31,33,-1,35,37,39,41,43,45,47,-1,49,51,-1,-1,-1,-1,-1,53,-1,55,57,-1,59,-1,-1,-1,61,63,65,67,-1,-1,69,-1,-1,-1,-1,-1,-1,-1,-1,-1,-1,-1,-1,-1,-1,-1,-1,-1,-1,-1,-1],"loss_changes":[1.7850389E-1,8.376915E-3,8.792058E-3,2.3226738E-3,6.3999933E-3,5.3683966E-3,4.0446147E-3,9.775311E-4,3.4607104E-3,2.9413435E-3,0E0,2.0920858E-3,3.426894E-3,5.5829063E-4,3.1142682E-3,0E0,6.7888945E-4,5.5605196E-4,9.118167E-4,0E0,2.0744544E-3,9.477623E-4,1.7330307E-4,1.8267505E-3,1.4794255E-3,1.3815258E-3,4.825946E-4,0E0,5.7509206E-3,7.3672645E-4,0E0,0E0,0E0,0E0,0E0,7.636552E-4,0E0,3.4480914E-4,1.7406661E-3,0E0,6.980845E-5,0E0,0E0,0E0,5.1715877E-4,7.19931E-4,4.7819735E-4,3.5217218E-4,0E0,0E0,1.7374754E-3,0E0,0E0,0E0,0E0,0E0,0E0,0E0,0E0,0E0,0E0,0E0,0E0,0E0,0E0,0E0,0E0,0E0,0E0,0E0,0E0],"parents":[2147483647,0,0,1,1,2,2,3,3,4,4,5,5,6,6,7,7,8,8,9,9,11,11,12,12,13,13,14,14,16,16,17,17,18,18,20,20,21,21,22,22,23,23,24,24,25,25,26,26,28,28,29,29,35,35,37,37,38,38,40,40,44,44,45,45,46,46,47,47,50,50],"right_children":[2,4,6,8,10,12,14,16,18,20,-1,22,24,26,28,-1,30,32,34,-1,36,38,40,42,44,46,48,-1,50,52,-1,-1,-1,-1,-1,54,-1,56,58,-1,60,-1,-1,-1,62,64,66,68,-1,-1,70,-1,-1,-1,-1,-1,-1,-1,-1,-1,-1,-1,-1,-1,-1,-1,-1,-1,-1,-1,-1],"split_conditions":[1.5329059E0,1.3116174E0,1.9180119E0,1.8990358E0,4.9945688E-1,2.5763664E-1,9.1057444E-1,-2.1654177E0,-7.122296E-1,-6.0360086E-1,-1.6428821E-3,7.257701E-1,-5.3101677E-1,6.246648E-1,-7.297012E-1,-1.691098E-3,1.4363518E0,3.0401673E0,-6.476981E-1,2.824158E-3,-3.5188383E-1,-3.2869834E-2,3.2878567E-2,8.0456E-1,-1.5023651E0,2.1981711E0,2.415614E0,5.1311194E-3,-3.672433E-1,-1.3760769E0,-1.5708171E-3,2.5031934E-3,8.1388076E-4,-1.2781986E-3,3.8317294E-4,1.0398265E0,-6.398795E-4,-8.818623E-1,4.10385E-1,5.975279E-4,1.6245282E0,5.614239E-4,-1.7595654E-3,-1.6588024E-4,1.2844605E0,8.5632133E-1,3.474085E-1,-6.80884E-1,3.78261E-3,-1.08721106E-4,9.60124E-1,-2.412241E-4,-5.095496E-4,1.4585869E-3,7.8625235E-5,2.0468587E-3,4.050814E-3,1.0099182E-3,2.6894452E-3,9.400911E-4,1.828356E-3,2.2585024E-3,1.2852883E-3,2.8877428E-3,1.1678882E-3,1.0056498E-3,2.1512657E-3,1.1447656E-3,2.6604396E-3,3.6776129E-3,1.8088466E-3],"split_indices":[19,19,19,15,1,1,15,15,1,1,0,14,18,1,4,0,15,15,12,0,12,18,1,1,8,19,19,0,4,1,0,0,0,0,0,6,0,17,6,0,19,0,0,0,15,14,15,18,0,0,8,0,0,0,0,0,0,0,0,0,0,0,0,0,0,0,0,0,0,0,0],"split_type":[0,0,0,0,0,0,0,0,0,0,0,0,0,0,0,0,0,0,0,0,0,0,0,0,0,0,0,0,0,0,0,0,0,0,0,0,0,0,0,0,0,0,0,0,0,0,0,0,0,0,0,0,0,0,0,0,0,0,0,0,0,0,0,0,0,0,0,0,0,0,0],"sum_hessian":[1.636E3,1.376E3,2.6E2,1.325E3,5.1E1,1.22E2,1.38E2,1.303E3,2.2E1,4.3E1,8E0,6.9E1,5.3E1,6.6E1,7.2E1,6E0,1.297E3,1E1,1.2E1,9E0,3.4E1,5.2E1,1.7E1,1.2E1,4.1E1,4.7E1,1.9E1,1.2E1,6E1,1.292E3,5E0,5E0,5E0,7E0,5E0,2.7E1,7E0,1.4E1,3.8E1,5E0,1.2E1,7E0,5E0,5E0,3.6E1,2.4E1,2.3E1,1.2E1,7E0,5E0,5.5E1,1.15E2,1.177E3,2.2E1,5E0,5E0,9E0,1E1,2.8E1,6E0,6E0,1.1E1,2.5E1,1.9E1,5E0,1.7E1,6E0,5E0,7E0,4.6E1,9E0],"tree_param":{"num_deleted":"0","num_feature":"22","num_nodes":"71","size_leaf_vector":"1"}},{"base_weights":[2.5908984E-4,-3.968437E-3,1.837624E-2,-4.253457E-3,4.2037168E-3,1.0136384E-2,2.256628E-2,-4.1866675E-3,-1.8015535E-3,2.311311E-2,-2.3996094E-3,1.2792346E-2,-1.7171291E-3,2.3427598E-2,-1.033602E-3,3.1869481E-3,-4.263625E-3,9.183579E-4,3.1750833E-3,5.333204E-3,-9.192147E-3,1.6811837E-2,6.443303E-3,1.482946E-2,2.7103165E-2,3.424506E-3,-1.7872564E-3,-6.3620247E-3,-4.083403E-3,-1.189185E-3,1.3501297E-2,-1.3521843E-3,-5.539672E-3,1.9126758E-2,6.9712107E-3,-9.241998E-4,1.0050548E-2,2.4163622E-2,1.1409125E-2,2.9542215E-2,1.8225601E-2,-5.139012E-4,-1.815704E-3,-4.124944E-4,1.8168478E-4,6.459617E-4,1.9466374E-3,-1.4958909E-4,-8.214388E-4,2.9604046E-3,1.6615905E-3,1.4157048E-3,-1.2105139E-4,3.389021E-5,1.1772667E-3,3.462216E-3,5.7709095E-4,-2.7968225E-4,1.3126022E-3,4.591751E-3,2.7235628E-3,2.525687E-3,5.4654275E-4],"categories":[],"categories_nodes":[],"categories_segments":[],"categories_sizes":[],"default_left":[0,0,0,0,0,0,0,0,0,0,0,0,0,0,0,0,1,0,0,0,0,0,0,0,0,0,0,0,0,0,0,0,0,0,0,0,0,0,0,0,0,0,0,0,0,0,0,0,0,0,0,0,0,0,0,0,0,0,0,0,0,0,0],"id":18,"left_children":[1,3,5,7,9,11,13,15,-1,17,19,21,-1,23,-1,25,27,-1,-1,29,31,33,35,37,39,-1,-1,41,43,-1,45,-1,47,49,51,-1,53,55,57,59,61,-1,-1,-1,-1,-1,-1,-1,-1,-1,-1,-1,-1,-1,-1,-1,-1,-1,-1,-1,-1,-1,-1],"loss_changes":[1.2751992E-1,3.1623337E-3,1.0646746E-2,1.1240765E-3,5.799247E-3,8.052705E-3,6.1367303E-3,7.5127557E-4,0E0,1.1522467E-3,1.8874138E-3,2.4181474E-3,0E0,6.0134903E-3,0E0,9.769009E-3,4.6073645E-4,0E0,0E0,2.5523847E-3,2.2556132E-4,1.2334809E-3,2.3561164E-3,1.73565E-3,2.514623E-3,0E0,0E0,1.3492364E-3,2.9867887E-4,0E0,3.783044E-4,0E0,1.17503776E-4,7.708352E-4,7.8144047E-4,0E0,5.4792245E-4,2.877973E-3,1.2074378E-3,2.8664544E-3,2.822727E-3,0E0,0E0,0E0,0E0,0E0,0E0,0E0,0E0,0E0,0E0,0E0,0E0,0E0,0E0,0E0,0E0,0E0,0E0,0E0,0E0,0E0,0E0],"parents":[2147483647,0,0,1,1,2,2,3,3,4,4,5,5,6,6,7,7,9,9,10,10,11,11,13,13,15,15,16,16,19,19,20,20,21,21,22,22,23,23,24,24,27,27,28,28,30,30,32,32,33,33,34,34,36,36,37,37,38,38,39,39,40,40],"right_children":[2,4,6,8,10,12,14,16,-1,18,20,22,-1,24,-1,26,28,-1,-1,30,32,34,36,38,40,-1,-1,42,44,-1,46,-1,48,50,52,-1,54,56,58,60,62,-1,-1,-1,-1,-1,-1,-1,-1,-1,-1,-1,-1,-1,-1,-1,-1,-1,-1,-1,-1,-1,-1],"split_conditions":[1.3470811E0,5.904345E-1,1.6900843E0,1.2598766E0,-1.7063044E0,6.5514016E-1,1.5282686E0,-9.666453E-1,-1.8015535E-3,7.980305E-1,-2.026393E-1,2.131822E-1,-1.7171291E-3,2.0019086E-1,-1.033602E-3,-1.3760769E0,-1.3874528E0,9.183579E-4,3.1750833E-3,1.1179732E0,4.589441E-2,8.792435E-1,1.4298661E0,-2.505793E-1,2.304858E0,3.424506E-3,-1.7872564E-3,1.4361657E0,-2.0718919E-1,-1.189185E-3,-1.5379348E-1,-1.3521843E-3,3.6781982E-1,-6.517865E-1,4.8500806E-1,-9.241998E-4,-1.260842E0,8.7601855E-2,-9.8330456E-1,-4.0609348E-1,7.2581637E-1,-5.139012E-4,-1.815704E-3,-4.124944E-4,1.8168478E-4,6.459617E-4,1.9466374E-3,-1.4958909E-4,-8.214388E-4,2.9604046E-3,1.6615905E-3,1.4157048E-3,-1.2105139E-4,3.389021E-5,1.1772667E-3,3.462216E-3,5.7709095E-4,-2.7968225E-4,1.3126022E-3,4.591751E-3,2.7235628E-3,2.525687E-3,5.4654275E-4],"split_indices":[19,15,19,19,1,1,1,15,0,19,1,1,0,15,0,1,17,0,0,19,20,0,19,1,15,0,0,16,15,0,20,0,20,11,21,0,3,11,2,1,13,0,0,0,0,0,0,0,0,0,0,0,0,0,0,0,0,0,0,0,0,0,0],"split_type":[0,0,0,0,0,0,0,0,0,0,0,0,0,0,0,0,0,0,0,0,0,0,0,0,0,0,0,0,0,0,0,0,0,0,0,0,0,0,0,0,0,0,0,0,0,0,0,0,0,0,0,0,0,0,0,0,0,0,0,0,0,0,0],"sum_hessian":[1.663E3,1.349E3,3.14E2,1.304E3,4.5E1,1.07E2,2.07E2,1.299E3,5E0,1.1E1,3.4E1,9.8E1,9E0,2.02E2,5E0,1.3E1,1.286E3,5E0,6E0,1.6E1,1.8E1,5.9E1,3.9E1,6.2E1,1.4E2,5E0,8E0,9.9E1,1.187E3,5E0,1.1E1,7E0,1.1E1,4.7E1,1.2E1,7E0,3.2E1,1.5E1,4.7E1,1.08E2,3.2E1,9.1E1,8E0,1.179E3,8E0,6E0,5E0,5E0,6E0,7E0,4E1,6E0,6E0,5E0,2.7E1,9E0,6E0,5E0,4.2E1,1.1E1,9.7E1,2E1,1.2E1],"tree_param":{"num_deleted":"0","num_feature":"22","num_nodes":"63","size_leaf_vector":"1"}},{"base_weights":[2.0636412E-4,-3.8910904E-3,1.7649159E-2,-4.0740194E-3,1.4677926E-3,1.0595767E-2,2.1877514E-2,-1.2345425E-2,-3.9545195E-3,2.9085693E-3,-3.5269018E-3,1.8019106E-2,1.79018E-3,1.9446073E-2,3.180057E-2,-2.4187759E-2,1.5370534E-3,1.004339E-3,-4.039381E-3,-1.6262198E-3,8.357602E-4,2.0991143E-2,8.392704E-3,-1.25995865E-2,5.587669E-3,2.1761352E-2,1.1189305E-3,7.7518047E-4,3.816741E-2,-2.999537E-3,-1.2412984E-3,-3.9590383E-3,-2.0345272E-3,1.1548148E-2,-5.9739454E-3,1.3950695E-2,2.3146007E-2,1.16175115E-2,5.443034E-5,-1.203372E-4,-2.3795238E-3,-6.5516774E-3,9.707801E-3,1.2674661E-2,2.3594622E-2,9.372855E-3,-1.8326713E-3,4.1755516E-2,2.0925428E-3,-7.048777E-4,-3.8526554E-4,1.7949477E-3,4.4115586E-4,-1.3583333E-3,-4.031922E-5,2.0459206E-3,8.0616114E-4,2.6405903E-3,1.5347278E-3,5.536733E-4,1.5169963E-3,-1.687092E-3,6.579384E-4,5.5659877E-4,2.0594397E-3,1.7019523E-3,4.0209293E-4,2.4672642E-3,7.9169654E-4,-6.1808096E-4,1.8700535E-3,2.448852E-3,4.640925E-3],"categories":[],"categories_nodes":[],"categories_segments":[],"categories_sizes":[],"default_left":[0,0,0,0,0,0,0,0,0,0,0,0,0,0,0,0,0,0,0,0,0,0,0,0,0,0,0,0,0,0,0,1,0,0,0,0,0,0,0,0,0,0,0,0,0,0,0,0,0,0,0,0,0,0,0,0,0,0,0,0,0,0,0,0,0,0,0,0,0,0,0,0,0],"id":19,"left_children":[1,3,5,7,9,11,13,15,17,-1,19,21,23,25,27,29,-1,-1,31,-1,33,35,37,39,41,43,45,-1,47,-1,-1,49,-1,51,53,55,57,59,-1,-1,-1,61,63,65,67,69,-1,71,-1,-1,-1,-1,-1,-1,-1,-1,-1,-1,-1,-1,-1,-1,-1,-1,-1,-1,-1,-1,-1,-1,-1,-1,-1],"loss_changes":[1.1835327E-1,1.320554E-3,9.162828E-3,1.2331698E-3,6.310016E-3,7.811767E-3,4.11056E-3,6.279768E-3,1.5610605E-3,0E0,2.1804231E-3,1.6834773E-3,3.1305214E-3,6.764844E-3,5.3693764E-3,5.1665073E-4,0E0,0E0,1.5871618E-3,0E0,2.2574344E-3,4.2048842E-4,4.2393932E-4,1.5024223E-3,2.3143096E-3,2.0664334E-3,3.221328E-3,0E0,9.203665E-4,0E0,0E0,3.896281E-4,0E0,4.6901882E-4,7.999336E-4,3.716743E-4,5.099699E-4,1.7522823E-4,0E0,0E0,0E0,1.7370314E-3,1.4184401E-3,9.0914685E-4,1.7820671E-3,2.146699E-3,0E0,7.1169436E-4,0E0,0E0,0E0,0E0,0E0,0E0,0E0,0E0,0E0,0E0,0E0,0E0,0E0,0E0,0E0,0E0,0E0,0E0,0E0,0E0,0E0,0E0,0E0,0E0,0E0],"parents":[2147483647,0,0,1,1,2,2,3,3,4,4,5,5,6,6,7,7,8,8,10,10,11,11,12,12,13,13,14,14,15,15,18,18,20,20,21,21,22,22,23,23,24,24,25,25,26,26,28,28,31,31,33,33,34,34,35,35,36,36,37,37,41,41,42,42,43,43,44,44,45,45,47,47],"right_children":[2,4,6,8,10,12,14,16,18,-1,20,22,24,26,28,30,-1,-1,32,-1,34,36,38,40,42,44,46,-1,48,-1,-1,50,-1,52,54,56,58,60,-1,-1,-1,62,64,66,68,70,-1,72,-1,-1,-1,-1,-1,-1,-1,-1,-1,-1,-1,-1,-1,-1,-1,-1,-1,-1,-1,-1,-1,-1,-1,-1,-1],"split_conditions":[1.3116174E0,-2.0718919E-1,1.734536E0,-1.2423863E0,-2.3932023E0,1.7510325E-1,2.3398604E0,7.975596E-1,-4.7981447E-1,2.9085693E-3,8.167323E-1,9.0352124E-1,-2.0020242E-1,7.6563704E-1,2.5763664E-1,2.184008E-1,1.5370534E-3,1.004339E-3,1.0869597E0,-1.6262198E-3,-3.598717E-1,-8.6738014E-1,-4.9238354E-1,-7.9870456E-1,-8.5929126E-1,-1.0969014E0,-1.1447266E0,7.7518047E-4,8.8858086E-1,-2.999537E-3,-1.2412984E-3,-2.0381901E0,-2.0345272E-3,-1.2315377E-1,4.589441E-2,-1.3033773E0,9.049862E-1,6.299825E-1,5.443034E-5,-1.203372E-4,-2.3795238E-3,3.8236868E-1,-6.8305147E-1,-9.037017E-1,2.3115795E0,-9.186445E-1,-1.8326713E-3,-6.08626E-2,2.0925428E-3,-7.048777E-4,-3.8526554E-4,1.7949477E-3,4.4115586E-4,-1.3583333E-3,-4.031922E-5,2.0459206E-3,8.0616114E-4,2.6405903E-3,1.5347278E-3,5.536733E-4,1.5169963E-3,-1.687092E-3,6.579384E-4,5.5659877E-4,2.0594397E-3,1.7019523E-3,4.0209293E-4,2.4672642E-3,7.9169654E-4,-6.1808096E-4,1.8700535E-3,2.448852E-3,4.640925E-3],"split_indices":[19,15,19,15,1,1,19,13,15,0,19,4,4,1,1,0,0,0,19,0,1,3,10,2,21,16,5,0,2,0,0,9,0,16,20,3,18,6,0,0,0,11,12,3,19,2,0,11,0,0,0,0,0,0,0,0,0,0,0,0,0,0,0,0,0,0,0,0,0,0,0,0,0],"split_type":[0,0,0,0,0,0,0,0,0,0,0,0,0,0,0,0,0,0,0,0,0,0,0,0,0,0,0,0,0,0,0,0,0,0,0,0,0,0,0,0,0,0,0,0,0,0,0,0,0,0,0,0,0,0,0,0,0,0,0,0,0,0,0,0,0,0,0,0,0,0,0,0,0],"sum_hessian":[1.654E3,1.34E3,3.14E2,1.296E3,4.4E1,1.19E2,1.95E2,1.7E1,1.279E3,6E0,3.8E1,6.4E1,5.5E1,1.59E2,3.6E1,1.2E1,5E0,7E0,1.272E3,9E0,2.9E1,4.8E1,1.6E1,1.1E1,4.4E1,1.41E2,1.8E1,8E0,2.8E1,7E0,5E0,1.267E3,5E0,1.1E1,1.8E1,1.3E1,3.5E1,1.1E1,5E0,6E0,5E0,1.1E1,3.3E1,2.5E1,1.16E2,1.3E1,5E0,2.2E1,6E0,4E1,1.227E3,5E0,6E0,7E0,1.1E1,5E0,8E0,2.3E1,1.2E1,5E0,6E0,6E0,5E0,2.5E1,8E0,1.6E1,9E0,1.08E2,8E0,5E0,8E0,6E0,1.6E1],"tree_param":{"num_deleted":"0","num_feature":"22","num_nodes":"73","size_leaf_vector":"1"}},{"base_weights":[1.7130094E-4,-3.4566172E-3,1.5343084E-2,-1.7225629E-3,-3.3826071E-3,1.1279176E-2,2.0877903E-2,-4.2233834E-4,-3.6792553E-3,1.41508635E-2,-3.252252E-3,1.587645E-2,2.6096778E-2,-4.24246E-3,1.851647E-2,-3.4561183E-3,-9.887301E-3,2.0021923E-2,1.0821444E-2,8.727724E-3,-1.0876624E-2,1.0738885E-2,2.1962814E-2,3.4262046E-2,1.7140701E-2,-1.0800457E-3,-3.5074868E-3,3.0144907E-3,9.04167E-3,-3.4039123E-3,-9.2499517E-4,-1.6220696E-2,-3.9501186E-3,1.3392414E-2,3.128542E-2,-8.59674E-4,1.1899889E-2,3.32988E-4,1.2878751E-3,-1.2973447E-3,-2.5083374E-3,1.610084E-2,4.303789E-3,1.1555967E-2,2.6167927E-2,1.2780502E-3,3.7641588E-3,2.0997083E-2,-3.71253E-4,-4.368793E-4,-3.1374663E-4,-2.35504E-4,2.2730338E-3,-1.0493412E-3,-3.3646802E-4,-2.147897E-3,-9.965843E-4,-1.6515168E-3,4.5768254E-5,1.6088056E-3,-3.216409E-4,3.5730319E-3,1.4958936E-3,9.878793E-4,1.8060908E-3,1.0663954E-3,-1.010615E-3,2.0540792E-3,3.6522618E-4,-5.6405494E-4,7.994605E-4,6.222529E-4,1.4963411E-3,3.6188029E-3,1.9079344E-3,3.0186435E-3,1.1020551E-3],"categories":[],"categories_nodes":[],"categories_segments":[],"categories_sizes":[],"default_left":[0,0,0,0,0,0,0,0,0,0,0,0,0,0,0,0,0,0,0,0,0,0,0,0,0,0,0,0,0,0,0,0,0,0,0,0,0,0,0,0,0,0,0,0,0,0,0,0,0,0,0,0,0,0,0,0,0,0,0,0,0,0,0,0,0,0,0,0,0,0,0,0,0,0,0,0,0],"id":20,"left_children":[1,3,5,-1,7,9,11,13,15,17,19,21,23,25,27,29,31,33,35,37,39,41,43,45,47,-1,49,-1,51,53,-1,55,57,59,61,-1,63,-1,-1,65,-1,67,69,71,73,-1,-1,75,-1,-1,-1,-1,-1,-1,-1,-1,-1,-1,-1,-1,-1,-1,-1,-1,-1,-1,-1,-1,-1,-1,-1,-1,-1,-1,-1,-1,-1],"loss_changes":[9.241349E-2,1.3225414E-3,7.0522428E-3,0E0,1.1830814E-3,7.932935E-3,3.135547E-3,9.049775E-3,1.6641375E-3,2.8717965E-3,3.0178013E-3,2.015518E-3,4.1660927E-3,4.6339235E-4,2.0411587E-3,3.2694545E-4,1.5152325E-3,3.7626121E-3,2.2592694E-3,2.4840084E-4,2.689267E-3,1.3453979E-3,1.0979874E-3,1.9146428E-3,2.731747E-3,0E0,1.6569626E-5,0E0,2.081606E-3,2.917815E-4,0E0,4.4373842E-4,1.2813963E-3,1.7082887E-3,9.169057E-4,0E0,1.041878E-3,0E0,0E0,1.4775132E-3,0E0,1.1409433E-3,7.7914837E-4,1.0679709E-4,8.7217893E-4,0E0,0E0,2.23431E-3,0E0,0E0,0E0,0E0,0E0,0E0,0E0,0E0,0E0,0E0,0E0,0E0,0E0,0E0,0E0,0E0,0E0,0E0,0E0,0E0,0E0,0E0,0E0,0E0,0E0,0E0,0E0,0E0,0E0],"parents":[2147483647,0,0,1,1,2,2,4,4,5,5,6,6,7,7,8,8,9,9,10,10,11,11,12,12,13,13,14,14,15,15,16,16,17,17,18,18,19,19,20,20,21,21,22,22,23,23,24,24,26,26,28,28,29,29,31,31,32,32,33,33,34,34,36,36,39,39,41,41,42,42,43,43,44,44,47,47],"right_children":[2,4,6,-1,8,10,12,14,16,18,20,22,24,26,28,30,32,34,36,38,40,42,44,46,48,-1,50,-1,52,54,-1,56,58,60,62,-1,64,-1,-1,66,-1,68,70,72,74,-1,-1,76,-1,-1,-1,-1,-1,-1,-1,-1,-1,-1,-1,-1,-1,-1,-1,-1,-1,-1,-1,-1,-1,-1,-1,-1,-1,-1,-1,-1,-1],"split_conditions":[1.2873453E0,-2.5283988E0,1.9389666E0,-1.7225629E-3,-1.7063044E0,5.3251684E-1,1.0141721E0,5.1972363E-2,3.7344307E-1,3.5261562E-1,-6.377787E-1,3.8090906E-1,1.8990358E0,-4.150229E0,-3.7967226E-1,1.8966036E0,5.085967E-1,1.6674136E0,-7.8387797E-1,2.640718E-1,-7.4187946E-1,2.1981711E0,-6.241908E-1,-9.865648E-1,1.0563792E0,-1.0800457E-3,-2.3932023E0,3.0144907E-3,-1.9567722E0,-2.5724704E0,-9.2499517E-4,-2.0718919E-1,-1.346626E0,2.877357E-1,1.8624756E0,-8.59674E-4,1.2092268E0,3.32988E-4,1.2878751E-3,-3.473534E-1,-2.5083374E-3,-3.9794138E-1,-2.4072264E-1,-5.122567E-1,4.7914505E-1,1.2780502E-3,3.7641588E-3,2.435718E0,-3.71253E-4,-4.368793E-4,-3.1374663E-4,-2.35504E-4,2.2730338E-3,-1.0493412E-3,-3.3646802E-4,-2.147897E-3,-9.965843E-4,-1.6515168E-3,4.5768254E-5,1.6088056E-3,-3.216409E-4,3.5730319E-3,1.4958936E-3,9.878793E-4,1.8060908E-3,1.0663954E-3,-1.010615E-3,2.0540792E-3,3.6522618E-4,-5.6405494E-4,7.994605E-4,6.222529E-4,1.4963411E-3,3.6188029E-3,1.9079344E-3,3.0186435E-3,1.1020551E-3],"split_indices":[19,15,19,0,1,1,15,19,19,14,12,1,15,1,6,1,5,19,11,11,20,19,6,10,4,0,1,0,1,18,0,15,3,1,19,0,2,0,0,11,0,12,10,0,0,0,0,15,0,0,0,0,0,0,0,0,0,0,0,0,0,0,0,0,0,0,0,0,0,0,0,0,0,0,0,0,0],"split_type":[0,0,0,0,0,0,0,0,0,0,0,0,0,0,0,0,0,0,0,0,0,0,0,0,0,0,0,0,0,0,0,0,0,0,0,0,0,0,0,0,0,0,0,0,0,0,0,0,0,0,0,0,0,0,0,0,0,0,0,0,0,0,0,0,0,0,0,0,0,0,0,0,0,0,0,0,0],"sum_hessian":[1.677E3,1.354E3,3.23E2,6E0,1.348E3,1.88E2,1.35E2,1.23E2,1.225E3,1.57E2,3.1E1,7.1E1,6.4E1,1.03E2,2E1,1.184E3,4.1E1,5.5E1,1.02E2,1.2E1,1.9E1,4E1,3.1E1,3.2E1,3.2E1,9E0,9.4E1,8E0,1.2E1,1.175E3,9E0,1.9E1,2.2E1,3.6E1,1.9E1,5E0,9.7E1,6E0,6E0,1.2E1,7E0,2.1E1,1.9E1,1E1,2.1E1,5E0,2.7E1,2.7E1,5E0,2.5E1,6.9E1,7E0,5E0,5E0,1.17E3,9E0,1E1,5E0,1.7E1,3.1E1,5E0,1.4E1,5E0,7.5E1,2.2E1,5E0,7E0,1.5E1,6E0,5E0,1.4E1,5E0,5E0,7E0,1.4E1,1.3E1,1.4E1],"tree_param":{"num_deleted":"0","num_feature":"22","num_nodes":"77","size_leaf_vector":"1"}},{"base_weights":[3.661031E-4,-2.9234109E-3,1.5124134E-2,-3.208356E-3,1.7827855E-3,1.1129723E-2,1.8840577E-2,-3.1070649E-3,-1.7145192E-3,1.8956697E-2,-3.3141517E-3,1.6359728E-2,4.0097223E-3,1.2477679E-2,2.1931771E-2,5.946785E-4,-3.1475518E-3,2.235208E-2,8.4405794E-4,-1.6246879E-3,-1.3368189E-3,2.5698485E-2,1.3090902E-2,-2.8154913E-3,8.753696E-3,1.4821912E-2,4.888608E-3,2.5092503E-2,1.1066591E-2,-5.6032883E-3,-3.0648625E-3,2.605093E-3,1.3694935E-3,-3.6399516E-3,7.0274747E-3,1.7439526E-2,3.6939352E-3,2.0463819E-2,1.1035453E-2,-1.6791668E-3,1.9773052E-3,1.3978181E-2,4.738677E-3,4.63334E-3,1.8063659E-2,2.6153665E-4,6.266618E-4,2.6960345E-2,5.1453634E-4,-5.7397166E-4,1.6675936E-2,-3.4269431E-4,-1.7364754E-3,-7.2185555E-4,-3.0178585E-4,1.7718192E-4,-7.998096E-4,1.061709E-3,1.6683458E-4,2.3430008E-3,5.547213E-4,1.1762885E-3,2.443154E-3,-3.356891E-5,1.249423E-3,-3.1415408E-4,7.9221895E-4,3.5369486E-4,1.9889227E-3,9.414114E-4,-5.204532E-4,2.7854543E-4,5.709002E-4,2.775528E-3,1.2588426E-3,1.8364653E-3,3.1709657E-3,2.3303449E-3,-1.5675822E-4],"categories":[],"categories_nodes":[],"categories_segments":[],"categories_sizes":[],"default_left":[0,0,0,0,0,0,0,0,0,0,0,0,0,0,0,0,0,0,0,0,0,0,0,0,0,0,0,0,0,0,1,0,0,0,0,0,0,0,0,0,0,0,0,0,0,0,0,0,0,0,0,0,0,0,0,0,0,0,0,0,0,0,0,0,0,0,0,0,0,0,0,0,0,0,0,0,0,0,0],"id":21,"left_children":[1,3,5,7,9,11,13,15,-1,17,19,21,23,25,27,-1,29,31,-1,-1,33,35,37,39,41,43,45,47,49,51,53,-1,-1,55,57,59,-1,61,63,-1,65,67,69,71,73,-1,-1,75,-1,-1,77,-1,-1,-1,-1,-1,-1,-1,-1,-1,-1,-1,-1,-1,-1,-1,-1,-1,-1,-1,-1,-1,-1,-1,-1,-1,-1,-1,-1],"loss_changes":[8.043764E-2,1.8227855E-3,4.2734966E-3,1.7508557E-3,6.890504E-3,5.4455698E-3,2.775032E-3,4.8425142E-4,0E0,4.5404816E-4,1.5381915E-3,2.2583585E-3,2.0968788E-3,8.7044016E-4,3.2595322E-3,0E0,2.3970194E-4,5.951384E-5,0E0,0E0,1.0658399E-3,1.3053901E-3,7.5922534E-4,1.8417964E-3,7.3086517E-4,1.2374558E-3,2.7466216E-5,2.8046705E-3,2.4525244E-3,9.643724E-4,2.1758024E-4,0E0,0E0,1.0283382E-3,2.1313346E-4,8.6739846E-4,0E0,1.6141217E-4,8.8335713E-4,0E0,6.6393777E-4,9.1715064E-4,1.1182396E-3,5.9625454E-6,1.2425203E-3,0E0,0E0,2.3569614E-3,0E0,0E0,2.333804E-3,0E0,0E0,0E0,0E0,0E0,0E0,0E0,0E0,0E0,0E0,0E0,0E0,0E0,0E0,0E0,0E0,0E0,0E0,0E0,0E0,0E0,0E0,0E0,0E0,0E0,0E0,0E0,0E0],"parents":[2147483647,0,0,1,1,2,2,3,3,4,4,5,5,6,6,7,7,9,9,10,10,11,11,12,12,13,13,14,14,16,16,17,17,20,20,21,21,22,22,23,23,24,24,25,25,26,26,27,27,28,28,29,29,30,30,33,33,34,34,35,35,37,37,38,38,40,40,41,41,42,42,43,43,44,44,47,47,50,50],"right_children":[2,4,6,8,10,12,14,16,-1,18,20,22,24,26,28,-1,30,32,-1,-1,34,36,38,40,42,44,46,48,50,52,54,-1,-1,56,58,60,-1,62,64,-1,66,68,70,72,74,-1,-1,76,-1,-1,78,-1,-1,-1,-1,-1,-1,-1,-1,-1,-1,-1,-1,-1,-1,-1,-1,-1,-1,-1,-1,-1,-1,-1,-1,-1,-1,-1,-1],"split_conditions":[1.3977355E0,8.167323E-1,1.8882625E0,6.760303E-1,-1.0994972E0,2.5763664E-1,1.0438255E-1,-3.6998543E-1,-1.7145192E-3,-1.2408715E-1,-1.2270534E0,1.6173567E-1,3.8797783E-3,7.4057525E-1,2.2347543E0,5.946785E-4,-2.072577E0,5.0266292E-2,8.4405794E-4,-1.6246879E-3,1.3127257E0,1.0500028E0,-9.514298E-2,-1.0975055E0,-7.304412E-1,-1.0525886E0,2.1465611E0,1.2357069E0,-6.8808E-1,-9.2112E-1,-3.184625E0,2.605093E-3,1.3694935E-3,-2.026393E-1,2.3077501E-1,9.022923E-2,3.6939352E-3,-1.3033773E0,-1.0975055E0,-1.6791668E-3,2.4126656E-1,1.6504267E0,8.40226E-1,8.963907E-2,-1.3833725E0,2.6153665E-4,6.266618E-4,9.1057444E-1,5.1453634E-4,-5.7397166E-4,1.0157852E0,-3.4269431E-4,-1.7364754E-3,-7.2185555E-4,-3.0178585E-4,1.7718192E-4,-7.998096E-4,1.061709E-3,1.6683458E-4,2.3430008E-3,5.547213E-4,1.1762885E-3,2.443154E-3,-3.356891E-5,1.249423E-3,-3.1415408E-4,7.9221895E-4,3.5369486E-4,1.9889227E-3,9.414114E-4,-5.204532E-4,2.7854543E-4,5.709002E-4,2.775528E-3,1.2588426E-3,1.8364653E-3,3.1709657E-3,2.3303449E-3,-1.5675822E-4],"split_indices":[19,19,19,19,1,1,15,15,0,2,16,14,9,4,15,0,2,12,0,0,19,15,11,15,16,16,19,14,21,0,9,0,0,1,11,0,0,3,15,0,0,19,9,14,15,0,0,15,0,0,4,0,0,0,0,0,0,0,0,0,0,0,0,0,0,0,0,0,0,0,0,0,0,0,0,0,0,0,0],"split_type":[0,0,0,0,0,0,0,0,0,0,0,0,0,0,0,0,0,0,0,0,0,0,0,0,0,0,0,0,0,0,0,0,0,0,0,0,0,0,0,0,0,0,0,0,0,0,0,0,0,0,0,0,0,0,0,0,0,0,0,0,0,0,0,0,0,0,0,0,0,0,0,0,0,0,0,0,0,0,0],"sum_hessian":[1.655E3,1.354E3,3.01E2,1.277E3,7.7E1,1.47E2,1.54E2,1.269E3,8E0,1.7E1,6E1,8.4E1,6.3E1,5.2E1,1.02E2,5E0,1.264E3,1.2E1,5E0,7E0,5.3E1,2E1,6.4E1,2.6E1,3.7E1,3.9E1,1.3E1,7.8E1,2.4E1,3.9E1,1.225E3,7E0,5E0,4.2E1,1.1E1,1.3E1,7E0,1.2E1,5.2E1,6E0,2E1,1.5E1,2.2E1,1E1,2.9E1,6E0,7E0,7.1E1,7E0,6E0,1.8E1,3.4E1,5E0,1.2E1,1.213E3,1.9E1,2.3E1,6E0,5E0,8E0,5E0,5E0,7E0,6E0,4.6E1,1.1E1,9E0,6E0,9E0,1.5E1,7E0,5E0,5E0,9E0,2E1,2.7E1,4.4E1,1.3E1,5E0],"tree_param":{"num_deleted":"0","num_feature":"22","num_nodes":"79","size_leaf_vector":"1"}},{"base_weights":[1.6235684E-4,-2.408688E-3,1.3548577E-2,-2.667389E-3,6.356822E-3,1.0776662E-2,1.9858573E-2,4.43662E-3,-2.821675E-3,2.0696595E-2,8.8701077E-4,1.1879579E-2,-2.4474605E-3,1.2940448E-2,2.8837785E-2,-1.0523754E-3,1.0392857E-2,-2.9489773E-3,1.4288047E-3,2.5070854E-3,1.2872906E-3,-6.7359145E-4,3.4998972E-3,1.7987322E-2,7.810777E-3,1.6462177E-2,3.4633577E-3,3.4327697E-2,1.7328875E-2,2.2939875E-4,-3.289592E-4,-3.1245334E-4,1.8249687E-3,-1.3660711E-2,-2.8453604E-3,1.0899034E-2,-8.112865E-3,1.3766766E-3,-9.3351305E-4,2.646829E-2,1.4216405E-2,9.154477E-3,-1.3460547E-3,9.464989E-3,2.2902602E-2,5.277342E-4,1.6515454E-5,1.8849612E-3,3.7771275E-3,7.663659E-4,2.4518538E-3,-5.061791E-4,-1.9079683E-3,-2.7676203E-4,-7.8141876E-4,2.2226467E-3,1.4952055E-4,-1.4984444E-3,-3.2601348E-4,-7.056348E-4,5.2930455E-4,1.3037365E-3,3.2252513E-3,6.2872353E-4,1.9821557E-3,1.3947367E-3,5.6054187E-4,3.6734017E-4,1.6245298E-3,3.157435E-3,1.6658178E-3],"categories":[],"categories_nodes":[],"categories_segments":[],"categories_sizes":[],"default_left":[0,0,0,0,0,0,0,0,0,0,0,0,0,0,0,0,0,0,0,0,0,0,0,0,0,0,0,0,0,0,0,0,0,0,0,0,0,0,0,0,0,0,0,0,0,0,0,0,0,0,0,0,0,0,0,0,0,0,0,0,0,0,0,0,0,0,0,0,0,0,0],"id":22,"left_children":[1,3,5,7,9,11,13,15,17,19,21,23,-1,25,27,29,31,33,35,-1,-1,-1,37,39,41,43,45,47,49,-1,-1,-1,-1,51,53,55,57,-1,59,61,63,65,-1,67,69,-1,-1,-1,-1,-1,-1,-1,-1,-1,-1,-1,-1,-1,-1,-1,-1,-1,-1,-1,-1,-1,-1,-1,-1,-1,-1],"loss_changes":[5.681998E-2,3.1576473E-3,4.4385344E-3,1.4877999E-3,3.119076E-3,7.561166E-3,4.596375E-3,9.590561E-4,7.173782E-4,5.3716358E-5,6.211102E-4,4.382422E-3,0E0,1.5116455E-3,1.5533585E-3,1.2733089E-4,1.5438756E-3,1.3818229E-3,3.6125327E-3,0E0,0E0,0E0,1.059748E-3,1.9263513E-3,3.2958565E-3,1.3154326E-3,8.288887E-5,4.6062656E-4,7.154639E-4,0E0,0E0,0E0,0E0,4.6259048E-4,4.6855956E-4,2.097192E-3,6.180669E-4,0E0,6.854608E-4,1.2109475E-3,2.1864753E-3,1.7078957E-3,0E0,6.471623E-4,3.9457995E-4,0E0,0E0,0E0,0E0,0E0,0E0,0E0,0E0,0E0,0E0,0E0,0E0,0E0,0E0,0E0,0E0,0E0,0E0,0E0,0E0,0E0,0E0,0E0,0E0,0E0,0E0],"parents":[2147483647,0,0,1,1,2,2,3,3,4,4,5,5,6,6,7,7,8,8,9,9,10,10,11,11,13,13,14,14,15,15,16,16,17,17,18,18,22,22,23,23,24,24,25,25,26,26,27,27,28,28,33,33,34,34,35,35,36,36,38,38,39,39,40,40,41,41,43,43,44,44],"right_children":[2,4,6,8,10,12,14,16,18,20,22,24,-1,26,28,30,32,34,36,-1,-1,-1,38,40,42,44,46,48,50,-1,-1,-1,-1,52,54,56,58,-1,60,62,64,66,-1,68,70,-1,-1,-1,-1,-1,-1,-1,-1,-1,-1,-1,-1,-1,-1,-1,-1,-1,-1,-1,-1,-1,-1,-1,-1,-1,-1],"split_conditions":[1.5329059E0,1.8990358E0,2.156516E0,-2.7042887E0,-2.86142E-1,1.2889365E0,9.1057444E-1,-1.085468E0,1.2873453E0,-1.7761599E0,1.1077694E0,3.7307788E-2,-2.4474605E-3,9.0959847E-1,2.0322328E0,-7.313713E-1,-9.301317E-1,-1.2423863E0,-7.032566E-2,2.5070854E-3,1.2872906E-3,-6.7359145E-4,7.342231E-1,-2.0302224E-1,6.7034346E-1,-1.1558533E-1,1.4485837E0,-9.809572E-1,-8.882852E-3,2.2939875E-4,-3.289592E-4,-3.1245334E-4,1.8249687E-3,-5.1105905E-1,2.2914202E0,9.022923E-2,3.241942E-2,1.3766766E-3,1.3191952E0,1.5876839E0,9.1057444E-1,-8.831747E-1,-1.3460547E-3,2.8743094E-1,4.1562378E-1,5.277342E-4,1.6515454E-5,1.8849612E-3,3.7771275E-3,7.663659E-4,2.4518538E-3,-5.061791E-4,-1.9079683E-3,-2.7676203E-4,-7.8141876E-4,2.2226467E-3,1.4952055E-4,-1.4984444E-3,-3.2601348E-4,-7.056348E-4,5.2930455E-4,1.3037365E-3,3.2252513E-3,6.2872353E-4,1.9821557E-3,1.3947367E-3,5.6054187E-4,3.6734017E-4,1.6245298E-3,3.157435E-3,1.6658178E-3],"split_indices":[19,15,19,1,2,1,15,0,19,1,19,1,0,10,15,12,11,15,1,0,0,0,18,11,12,11,3,3,11,0,0,0,0,3,21,0,10,0,19,19,15,12,0,15,18,0,0,0,0,0,0,0,0,0,0,0,0,0,0,0,0,0,0,0,0,0,0,0,0,0,0],"split_type":[0,0,0,0,0,0,0,0,0,0,0,0,0,0,0,0,0,0,0,0,0,0,0,0,0,0,0,0,0,0,0,0,0,0,0,0,0,0,0,0,0,0,0,0,0,0,0,0,0,0,0,0,0,0,0,0,0,0,0,0,0,0,0,0,0,0,0,0,0,0,0],"sum_hessian":[1.649E3,1.384E3,2.65E2,1.345E3,3.9E1,1.86E2,7.9E1,2.8E1,1.317E3,1E1,2.9E1,1.81E2,5E0,4.6E1,3.3E1,1.5E1,1.3E1,1.279E3,3.8E1,5E0,5E0,7E0,2.2E1,7.1E1,1.1E2,3.3E1,1.3E1,2.1E1,1.2E1,6E0,9E0,5E0,8E0,1.1E1,1.268E3,1.9E1,1.9E1,6E0,1.6E1,2E1,5.1E1,1.04E2,6E0,1.7E1,1.6E1,8E0,5E0,5E0,1.6E1,6E0,6E0,5E0,6E0,1.25E3,1.8E1,8E0,1.1E1,7E0,1.2E1,8E0,8E0,7E0,1.3E1,2.2E1,2.9E1,4.3E1,6.1E1,1E1,7E0,5E0,1.1E1],"tree_param":{"num_deleted":"0","num_feature":"22","num_nodes":"71","size_leaf_vector":"1"}},{"base_weights":[1.5118491E-4,-2.1417877E-3,1.3956557E-2,-2.6087477E-3,4.6930173E-3,1.2479985E-2,2.7216682E-2,-1.0400154E-3,-2.5718312E-3,7.83434E-3,-6.3007097E-3,1.9763667E-2,8.852442E-3,1.5006537E-3,3.3994168E-3,1.7563951E-3,-2.6725223E-3,1.2082021E-2,3.7158355E-3,-1.2746838E-2,5.7676027E-4,1.2775045E-2,2.6203297E-2,1.0072965E-2,-2.1305261E-3,-5.7535563E-3,2.8326737E-3,-2.604721E-3,-6.5143225E-3,1.666127E-2,7.348904E-3,7.7065853E-3,-4.5514973E-3,-1.5928228E-4,-2.3673305E-3,1.9690484E-2,1.7807295E-3,3.3084724E-2,7.555986E-3,7.5776633E-3,1.5774326E-2,-1.176265E-3,-3.2368617E-4,-2.5248027E-4,-9.208163E-4,-1.008733E-3,4.6949167E-4,2.0346337E-3,6.5142545E-4,2.0846709E-4,1.0987922E-3,-2.2585635E-4,1.0186791E-3,4.2311163E-4,-1.2683896E-3,2.444283E-3,8.318523E-4,-7.5803575E-4,7.219309E-4,1.6260728E-3,3.731889E-3,1.1676265E-3,2.1763767E-4,1.2245231E-3,2.7018226E-5,1.847585E-3,-3.7269932E-5],"categories":[],"categories_nodes":[],"categories_segments":[],"categories_sizes":[],"default_left":[0,0,0,0,0,0,0,0,0,0,0,0,0,0,0,0,0,0,0,0,0,0,0,0,0,1,0,0,0,0,0,0,0,0,0,0,0,0,0,0,0,0,0,0,0,0,0,0,0,0,0,0,0,0,0,0,0,0,0,0,0,0,0,0,0,0,0],"id":23,"left_children":[1,3,5,7,9,11,13,-1,15,17,19,21,23,-1,-1,25,27,29,31,33,-1,35,37,39,-1,41,-1,43,45,47,49,51,53,-1,-1,55,57,59,61,63,65,-1,-1,-1,-1,-1,-1,-1,-1,-1,-1,-1,-1,-1,-1,-1,-1,-1,-1,-1,-1,-1,-1,-1,-1,-1,-1],"loss_changes":[5.289431E-2,4.5857774E-3,4.320264E-3,3.5925303E-4,3.2265682E-3,5.532164E-3,1.3932083E-3,0E0,5.8737677E-4,1.2146798E-3,1.7071902E-3,2.860546E-3,5.5886013E-3,0E0,0E0,6.348781E-3,3.2347627E-4,6.3615246E-4,1.2888049E-3,1.6685287E-3,0E0,2.702035E-3,4.3695383E-3,1.88642E-3,0E0,3.4000218E-4,0E0,6.5542106E-4,9.284744E-4,5.031298E-4,3.4106988E-4,6.656137E-4,9.821755E-4,0E0,0E0,9.856289E-4,8.1839005E-4,1.2452919E-3,2.1840842E-4,3.4075072E-3,1.8389923E-3,0E0,0E0,0E0,0E0,0E0,0E0,0E0,0E0,0E0,0E0,0E0,0E0,0E0,0E0,0E0,0E0,0E0,0E0,0E0,0E0,0E0,0E0,0E0,0E0,0E0,0E0],"parents":[2147483647,0,0,1,1,2,2,3,3,4,4,5,5,6,6,8,8,9,9,10,10,11,11,12,12,15,15,16,16,17,17,18,18,19,19,21,21,22,22,23,23,25,25,27,27,28,28,29,29,30,30,31,31,32,32,35,35,36,36,37,37,38,38,39,39,40,40],"right_children":[2,4,6,8,10,12,14,-1,16,18,20,22,24,-1,-1,26,28,30,32,34,-1,36,38,40,-1,42,-1,44,46,48,50,52,54,-1,-1,56,58,60,62,64,66,-1,-1,-1,-1,-1,-1,-1,-1,-1,-1,-1,-1,-1,-1,-1,-1,-1,-1,-1,-1,-1,-1,-1,-1,-1,-1],"split_conditions":[1.580397E0,1.2873453E0,2.4301045E0,-2.1654177E0,3.3297175E-1,3.7307788E-2,6.716701E-1,-1.0400154E-3,-2.7042887E0,6.0691845E-1,5.013708E-1,1.0141721E0,8.88933E-1,1.5006537E-3,3.3994168E-3,-1.775857E-1,1.0869597E0,1.4161232E0,-2.0468952E-1,-5.968715E-1,5.7676027E-4,8.7601855E-2,2.435718E0,2.156516E0,-2.1305261E-3,-4.2022127E-1,2.8326737E-3,2.0019086E-1,8.1473154E-1,6.351438E-1,2.8743094E-1,1.3470811E0,-8.4666604E-1,-1.5928228E-4,-2.3673305E-3,5.2340424E-1,-3.3523467E-1,-4.3129954E-1,1.8412837E0,-6.476981E-1,9.0506154E-1,-1.176265E-3,-3.2368617E-4,-2.5248027E-4,-9.208163E-4,-1.008733E-3,4.6949167E-4,2.0346337E-3,6.5142545E-4,2.0846709E-4,1.0987922E-3,-2.2585635E-4,1.0186791E-3,4.2311163E-4,-1.2683896E-3,2.444283E-3,8.318523E-4,-7.5803575E-4,7.219309E-4,1.6260728E-3,3.731889E-3,1.1676265E-3,2.1763767E-4,1.2245231E-3,2.7018226E-5,1.847585E-3,-3.7269932E-5],"split_indices":[19,19,19,15,1,1,1,0,1,14,2,15,12,0,0,19,19,19,3,2,0,11,15,19,0,21,0,15,8,4,15,19,12,0,0,2,20,21,19,12,9,0,0,0,0,0,0,0,0,0,0,0,0,0,0,0,0,0,0,0,0,0,0,0,0,0,0],"split_type":[0,0,0,0,0,0,0,0,0,0,0,0,0,0,0,0,0,0,0,0,0,0,0,0,0,0,0,0,0,0,0,0,0,0,0,0,0,0,0,0,0,0,0,0,0,0,0,0,0,0,0,0,0,0,0,0,0,0,0,0,0,0,0,0,0,0,0],"sum_hessian":[1.669E3,1.432E3,2.37E2,1.341E3,9.1E1,2.15E2,2.2E1,5E0,1.336E3,7.1E1,2E1,7E1,1.45E2,9E0,1.3E1,3E1,1.306E3,3.4E1,3.7E1,1.3E1,7E0,3.5E1,3.5E1,1.4E2,5E0,2.4E1,6E0,1.285E3,2.1E1,1.6E1,1.8E1,2.5E1,1.2E1,7E0,6E0,2.1E1,1.4E1,2.5E1,1E1,9.9E1,4.1E1,6E0,1.8E1,1.271E3,1.4E1,1.6E1,5E0,1.1E1,5E0,8E0,1E1,5E0,2E1,6E0,6E0,1.4E1,7E0,5E0,9E0,6E0,1.9E1,5E0,5E0,6E1,3.9E1,3.5E1,6E0],"tree_param":{"num_deleted":"0","num_feature":"22","num_nodes":"67","size_leaf_vector":"1"}},{"base_weights":[2.1002388E-4,-1.9508398E-3,1.1298521E-2,-2.3075284E-3,4.1287323E-3,7.992031E-3,1.5265851E-2,-2.2538772E-3,-1.2079653E-3,2.4768661E-3,2.0529537E-3,1.01923235E-2,-1.2636775E-2,6.9656256E-3,1.8894592E-2,-1.0457094E-3,-2.1957986E-3,-7.838156E-3,4.267001E-3,1.6727913E-2,7.957686E-3,-2.470218E-3,9.578362E-4,9.423386E-3,-1.1042208E-4,1.1458841E-2,2.412374E-2,4.170947E-3,-2.2827326E-3,1.6073076E-4,-1.597726E-3,1.6837679E-3,2.09287E-3,6.78586E-3,2.3348058E-2,8.876571E-3,-2.727947E-4,3.972651E-3,1.1950122E-2,2.8757479E-3,1.78614E-2,2.9615214E-2,1.6038055E-2,-1.6676212E-3,1.3471871E-3,-1.0504381E-3,-2.2426607E-4,-8.8877743E-4,3.6506125E-4,1.5733226E-3,7.388547E-5,1.5473812E-3,2.730807E-3,6.219845E-4,1.3131676E-3,6.869582E-4,4.1361152E-5,7.614556E-4,1.750165E-3,1.1344303E-3,-4.1866704E-4,9.068434E-4,2.0774025E-3,3.6060102E-3,2.162564E-3,8.9594704E-4,2.0249423E-3],"categories":[],"categories_nodes":[],"categories_segments":[],"categories_sizes":[],"default_left":[0,0,0,0,0,0,0,0,0,0,0,0,0,0,0,0,0,0,0,0,0,0,0,0,0,0,0,0,0,0,0,0,0,0,0,0,0,0,0,0,0,0,0,0,0,0,0,0,0,0,0,0,0,0,0,0,0,0,0,0,0,0,0,0,0,0,0],"id":24,"left_children":[1,3,5,7,9,11,13,15,-1,17,-1,19,21,23,25,-1,27,29,31,33,35,-1,-1,37,-1,39,41,43,45,-1,-1,-1,47,49,51,53,-1,55,57,59,61,63,65,-1,-1,-1,-1,-1,-1,-1,-1,-1,-1,-1,-1,-1,-1,-1,-1,-1,-1,-1,-1,-1,-1,-1,-1],"loss_changes":[4.010835E-2,3.0476158E-3,3.459189E-3,6.669299E-4,2.0623216E-3,6.9825985E-3,3.5730693E-3,6.049741E-4,0E0,1.3629458E-3,0E0,1.8677255E-3,4.257126E-3,7.8392227E-4,3.028594E-3,0E0,7.3458767E-4,8.7133393E-4,1.6592396E-3,2.0793695E-3,1.0453775E-3,0E0,0E0,3.6570313E-4,0E0,1.9819248E-3,1.700744E-3,3.7148204E-3,4.0243054E-4,0E0,0E0,0E0,9.561166E-4,7.999469E-4,2.0108186E-4,1.0035695E-3,0E0,1.1057187E-4,3.4811324E-4,1.064239E-3,3.4943456E-4,6.6195056E-4,4.7440734E-4,0E0,0E0,0E0,0E0,0E0,0E0,0E0,0E0,0E0,0E0,0E0,0E0,0E0,0E0,0E0,0E0,0E0,0E0,0E0,0E0,0E0,0E0,0E0,0E0],"parents":[2147483647,0,0,1,1,2,2,3,3,4,4,5,5,6,6,7,7,9,9,11,11,12,12,13,13,14,14,16,16,17,17,18,18,19,19,20,20,23,23,25,25,26,26,27,27,28,28,32,32,33,33,34,34,35,35,37,37,38,38,39,39,40,40,41,41,42,42],"right_children":[2,4,6,8,10,12,14,16,-1,18,-1,20,22,24,26,-1,28,30,32,34,36,-1,-1,38,-1,40,42,44,46,-1,-1,-1,48,50,52,54,-1,56,58,60,62,64,66,-1,-1,-1,-1,-1,-1,-1,-1,-1,-1,-1,-1,-1,-1,-1,-1,-1,-1,-1,-1,-1,-1,-1,-1],"split_conditions":[1.5276484E0,6.488542E-1,2.3077501E-1,1.8966036E0,1.2259885E0,8.432002E-1,1.7895238E0,-2.711447E0,-1.2079653E-3,-8.047032E-1,2.0529537E-3,-2.026393E-1,-5.3101677E-1,3.6504182E-1,1.0141721E0,-1.0457094E-3,-1.7299961E0,-7.8940165E-1,-7.122296E-1,-1.4793641E-2,1.297307E0,-2.470218E-3,9.578362E-4,2.7481064E-1,-1.1042208E-4,2.4704055E-1,6.385924E-1,-4.221051E-1,-1.3833725E0,1.6073076E-4,-1.597726E-3,1.6837679E-3,1.1969146E0,-1.6552188E0,1.6222198E0,2.126712E0,-2.727947E-4,1.6418748E0,4.3593955E-1,-5.502739E-1,-1.1208093E0,2.227729E-1,1.9180119E0,-1.6676212E-3,1.3471871E-3,-1.0504381E-3,-2.2426607E-4,-8.8877743E-4,3.6506125E-4,1.5733226E-3,7.388547E-5,1.5473812E-3,2.730807E-3,6.219845E-4,1.3131676E-3,6.869582E-4,4.1361152E-5,7.614556E-4,1.750165E-3,1.1344303E-3,-4.1866704E-4,9.068434E-4,2.0774025E-3,3.6060102E-3,2.162564E-3,8.9594704E-4,2.0249423E-3],"split_indices":[19,15,11,1,9,1,19,15,0,0,0,1,18,9,15,0,15,6,1,15,18,0,0,5,0,1,11,16,15,0,0,0,19,15,19,19,0,19,21,3,16,16,19,0,0,0,0,0,0,0,0,0,0,0,0,0,0,0,0,0,0,0,0,0,0,0,0],"split_type":[0,0,0,0,0,0,0,0,0,0,0,0,0,0,0,0,0,0,0,0,0,0,0,0,0,0,0,0,0,0,0,0,0,0,0,0,0,0,0,0,0,0,0,0,0,0,0,0,0,0,0,0,0,0,0,0,0,0,0,0,0,0,0,0,0,0,0],"sum_hessian":[1.672E3,1.4E3,2.72E2,1.323E3,7.7E1,1.5E2,1.22E2,1.317E3,6E0,7.1E1,6E0,1.36E2,1.4E1,3.8E1,8.4E1,8E0,1.309E3,1E1,6.1E1,3.3E1,1.03E2,9E0,5E0,2.9E1,9E0,3.6E1,4.8E1,1.7E1,1.292E3,5E0,5E0,8E0,5.3E1,1.4E1,1.9E1,9.5E1,8E0,1E1,1.9E1,1.6E1,2E1,2.7E1,2.1E1,5E0,1.2E1,5E0,1.287E3,6E0,4.7E1,5E0,9E0,8E0,1.1E1,6E1,3.5E1,5E0,5E0,1.2E1,7E0,7E0,9E0,6E0,1.4E1,1.3E1,1.4E1,9E0,1.2E1],"tree_param":{"num_deleted":"0","num_feature":"22","num_nodes":"67","size_leaf_vector":"1"}},{"base_weights":[3.4244728E-4,-1.5682093E-3,1.1381271E-2,-2.112244E-3,3.5523514E-3,1.0155787E-2,2.1906357E-2,-2.035892E-3,-1.8188594E-3,1.674972E-2,-1.1254215E-4,1.0897974E-2,-1.8626649E-3,9.488881E-3,2.9552083E-3,-1.985133E-3,-6.2214704E-3,2.0157507E-2,6.558491E-4,1.5049267E-3,-1.6275978E-3,2.0412602E-2,9.453664E-3,1.4004429E-3,3.391852E-4,4.522483E-4,-2.0194114E-3,-2.2458742E-4,-1.044417E-3,1.1724215E-3,2.4139087E-3,-3.2066752E-3,5.7436433E-3,7.0728967E-3,3.52605E-3,1.0119665E-3,1.0321126E-2,-1.9658104E-4,-5.6414405E-4,3.7714798E-4,-7.519284E-4,1.2167324E-3,2.8877865E-4,1.4317443E-3,-1.96133E-4,1.1968308E-3,-3.7558915E-4,4.594783E-4,1.1729955E-3],"categories":[],"categories_nodes":[],"categories_segments":[],"categories_sizes":[],"default_left":[0,0,0,0,0,0,0,0,0,0,0,0,0,0,0,0,0,0,0,0,0,0,0,0,0,0,0,0,0,0,0,0,0,0,0,0,0,0,0,0,0,0,0,0,0,0,0,0,0],"id":25,"left_children":[1,3,5,7,9,11,13,15,-1,17,19,21,-1,23,-1,25,27,29,-1,31,-1,33,35,-1,-1,-1,37,-1,-1,-1,-1,39,41,43,-1,45,47,-1,-1,-1,-1,-1,-1,-1,-1,-1,-1,-1,-1],"loss_changes":[3.54514E-2,3.999502E-3,2.9763058E-3,1.553759E-3,6.676524E-3,4.988065E-3,2.093099E-3,2.619312E-4,0E0,9.096833E-4,2.8741742E-3,2.8165411E-3,0E0,2.5534478E-4,0E0,2.9399572E-4,2.2835995E-4,4.5569986E-4,0E0,2.0155325E-3,0E0,5.2964697E-3,1.395544E-3,0E0,0E0,0E0,2.3566885E-4,0E0,0E0,0E0,0E0,1.4728734E-3,9.371543E-4,1.0752633E-3,0E0,1.0374789E-3,1.3498403E-3,0E0,0E0,0E0,0E0,0E0,0E0,0E0,0E0,0E0,0E0,0E0,0E0],"parents":[2147483647,0,0,1,1,2,2,3,3,4,4,5,5,6,6,7,7,9,9,10,10,11,11,13,13,15,15,16,16,17,17,19,19,21,21,22,22,26,26,31,31,32,32,33,33,35,35,36,36],"right_children":[2,4,6,8,10,12,14,16,-1,18,20,22,-1,24,-1,26,28,30,-1,32,-1,34,36,-1,-1,-1,38,-1,-1,-1,-1,40,42,44,-1,46,48,-1,-1,-1,-1,-1,-1,-1,-1,-1,-1,-1,-1],"split_conditions":[1.5734597E0,8.167323E-1,2.4301045E0,6.760303E-1,-6.640036E-1,1.4980417E0,6.716701E-1,2.0550468E0,-1.8188594E-3,-1.8609373E-1,6.5514016E-1,-4.150187E-1,-1.8626649E-3,-3.6170968E-1,2.9552083E-3,-3.6998543E-1,1.2686446E-1,3.8046166E-1,6.558491E-4,1.3470811E0,-1.6275978E-3,9.1057444E-1,-1.5813209E0,1.4004429E-3,3.391852E-4,4.522483E-4,2.7168024E0,-2.2458742E-4,-1.044417E-3,1.1724215E-3,2.4139087E-3,-1.703507E-1,-9.514298E-2,4.339593E-1,3.52605E-3,-1.37025E-1,-9.564792E-1,-1.9658104E-4,-5.6414405E-4,3.7714798E-4,-7.519284E-4,1.2167324E-3,2.8877865E-4,1.4317443E-3,-1.96133E-4,1.1968308E-3,-3.7558915E-4,4.594783E-4,1.1729955E-3],"split_indices":[19,19,19,19,1,9,1,5,0,14,1,1,0,12,0,15,17,5,0,19,0,15,5,0,0,0,20,0,0,0,0,1,11,2,0,21,21,0,0,0,0,0,0,0,0,0,0,0,0],"split_type":[0,0,0,0,0,0,0,0,0,0,0,0,0,0,0,0,0,0,0,0,0,0,0,0,0,0,0,0,0,0,0,0,0,0,0,0,0,0,0,0,0,0,0,0,0,0,0,0,0],"sum_hessian":[1.679E3,1.432E3,2.47E2,1.295E3,1.37E2,2.23E2,2.4E1,1.29E3,5E0,2.9E1,1.08E2,2.18E2,5E0,1E1,1.4E1,1.276E3,1.4E1,2.1E1,8E0,9.9E1,9E0,2.7E1,1.91E2,5E0,5E0,6E0,1.27E3,8E0,6E0,8E0,1.3E1,4.7E1,5.2E1,1.5E1,1.2E1,1.8E1,1.73E2,1.253E3,1.7E1,1.8E1,2.9E1,1.5E1,3.7E1,8E0,7E0,5E0,1.3E1,3.5E1,1.38E2],"tree_param":{"num_deleted":"0","num_feature":"22","num_nodes":"49","size_leaf_vector":"1"}},{"base_weights":[1.4010518E-4,-1.5789489E-3,1.0702626E-2,-2.0065003E-3,3.9440547E-3,1.1256659E-2,-4.0295906E-4,-1.3179403E-3,-1.9358746E-3,7.821635E-3,8.136126E-4,6.051388E-3,1.3170815E-2,-1.8601563E-3,-6.6661267E-3,-5.651972E-4,1.1627469E-2,-5.4878877E-3,4.9313526E-3,1.6662913E-3,3.8943377E-3,9.253458E-3,1.6972503E-2,-8.992724E-4,-2.1383693E-3,-1.9917642E-3,-9.211128E-4,1.054409E-3,-1.4767824E-3,8.379175E-3,1.7610969E-3,-9.351394E-3,-1.7966218E-3,-4.6246924E-4,7.0679374E-3,-1.645786E-3,8.011955E-3,1.7239904E-2,6.35233E-3,1.925033E-2,3.7521445E-3,-1.8463859E-4,9.5959083E-4,-1.8781943E-4,-1.0677319E-3,-2.2034992E-4,-5.9569625E-6,1.1276882E-4,1.0445633E-3,-4.8449278E-4,-1.2299295E-3,-5.663995E-4,1.3284855E-4,1.3878094E-3,4.6879795E-4,-9.2143164E-4,3.0050517E-4,1.4950354E-3,2.5557802E-4,2.0962653E-3,9.947057E-4,3.9906692E-4,1.6724364E-3,5.623018E-4,2.0973587E-3,8.516401E-4,-1.5481327E-4],"categories":[],"categories_nodes":[],"categories_segments":[],"categories_sizes":[],"default_left":[0,0,0,0,0,0,0,0,0,0,0,0,0,0,0,0,0,0,0,0,0,0,0,